{"Layers":[[[0,0,0,0,0],[1,0,0,0,0],[0,1,0,0,0],[0,0,1,0,0],[0,0,0,1,1]],[[0.308195645418844,0.7224167954831889,0.5815791402539073,0.7422922855214404,0.6837483649827157,0.4475818769476182,0.5863907281457958,0.7146470940799919,0.4758104709537174,0.34775248484962246,0.7301523645091291,0.6704844206295391,0.370414533574307,0.6664927968248089,0.4711139232804943,0.6337310306623944,0.48565898467583823,0.6824370394792452,0.7128498430382643,0.27331595377314044,0.6514817316079052,0.4329604278003235,0.305841227443377,0.5000040311897209,0.6812962029876813,0.6638822592290632,0.3050381395007463,0.5977158866879386,0.4181554830899595,0.4521294724472012,0.6826512606710262,0.3729105813846878,0.294495782311745,0.41283155156110884,0.6271633013981219,0.4613014339593814,0.3170125744952074,0.669945815233152,0.3949328583243384,0.36137685812050246,0.5871392319593692,0.6433770045133383,0.6329003089764074,0.3780382206727977,0.4386233876198672,0.27178363856663035,0.6588992944154165,0.36349086033970046,0.5866154278193224,0.5566857235087167],[0.41222016366487185,0.596205263253403,0.7691422130799045,0.2476095235953393,0.1354299916145955,0.4141697771654222,0.26845674145974946,0.28116787596562803,0.15115012886774953,0.5432067035993163,0.5963162118394818,0.5451789676205794,0.630022385664407,0.2982457850043166,0.5534008262124125,0.3485031758033678,0.6276672210244006,0.5076764854972758,0.7896747731834026,0.56555604674219,0.14782768210545863,0.6900343344913086,0.715660419096789,0.6712955862904746,0.6050583190301592,0.5747675781065961,0.5951309864034258,0.3579769509525365,0.8248002293600508,0.7858179982824828,0.4579675734576081,0.06077229977576619,0.5506726698369995,0.5566515175774881,0.5311783487025442,0.13382295587756426,0.7450837649000522,0.4904017082128792,0.6108802968140774,0.309886637821851,0.4415867726922468,0.5577128649956539,0.580955367927269,0.2926704398938359,0.4602500285384051,0.736720850388772,0.2696641174087609,0.48815434169965527,0.6642328331568402,0.16481634169207035],[0.49220248749133805,0.6649903956009692,0.6506429282784,0.15775722380089266,0.6151039012738857,0.05501458521490762,0.5663880394448702,0.3511681324357694,0.1275589713826797,0.06307105622550242,0.8258565661401379,0.5168263455052019,0.8351638297652021,0.7790434662376766,0.17371500781823102,0.3475553359377833,0.7021025955023423,0.4974256879688297,0.8350030884319648,0.7861141542006137,0.11644658961576193,0.5290269379691498,0.6575485708984815,0.8006803987845192,0.3381758104368291,0.7614903234536999,0.5569276488868871,0.3096756408875555,0.7687928060846091,0.7266143573301296,0.7991920229240635,0.05161400233023769,0.4144298695443133,0.5292727892356067,0.6829823091372493,0.24975909844163652,0.4937258298823256,0.4985031882448508,0.3823696149583757,0.23907529125404325,0.685063607639685,0.677698453983235,0.6131549273048089,0.3104490236022331,0.4144482039281198,0.5835350218578836,0.4649437060367232,0.2902789643682343,0.40290871793481514,0.6629418682637687],[0.4907416451183949,0.2771282289622589,0.1442066079716767,0.6774288094886756,0.7636718064394599,0.7542698861254777,0.027304626375611325,0.6501932835978291,0.5086500774324647,0.7361177761294492,0.2943531734958481,0.33089591387249934,0.4756840421563121,0.12226137079200508,0.08927082618492675,0.7721375364663302,0.3236032020441184,0.5598967616645224,0.4463882342518067,0.7297450509858957,0.24700041896391267,0.2519496773988281,0.04547301123541335,0.8222981270956877,0.21920199311198396,0.38949619704917743,0.5223237530623955,0.25852586216676465,0.5636005163559126,0.7080559066756587,0.7703417020711919,0.5925522932494148,0.5843392918796501,0.6725607648808921,0.6059423923325234,0.6143293368741919,0.746858365041959,0.11317798716922182,0.3165532633357609,0.7710768739665689,0.47308618571472505,0.6568293653587702,0.5938646981601285,0.5012190673336452,0.3716606451727677,0.24309105607953685,0.5390685885349822,0.8071703713876426,0.1996106313190035,0.4175056487705792],[0.6481078152530362,0.14605422070727825,0.520097740511566,0.8379336941227231,0.6199153479842958,0.4003154280343888,0.8352608355470496,0.37652973405417495,0.09324750468993494,0.7468246362784113,0.37256845046083387,0.7662864333874355,0.0029509098151814105,0.6300251454713903,0.5692387910491151,0.06427940410194259,0.08809998747606221,0.17375324231525913,0.6928718941684819,0.3366423419314027,0.5406822882226547,0.45964329108065544,0.6161683186625935,0.5508188664584787,0.5603498335159575,0.11259844489973976,0.18916288240265394,0.7454139103433726,0.3521810236959713,0.7542797604875651,0.011955605820408869,0.4474938260204438,0.10450277585142827,0.28416839554831486,0.5240850350908095,0.6070040218985467,0.2276113127955979,0.5220556078786035,0.3504274190489574,0.7394318565367608,0.23718266383684888,0.5803071853212117,0.03230078736146518,0.7564638035474568,0.7774540849021108,0.6761848992676701,0.6314362575758412,0.6286975496513524,0.12448266725627363,0.370854316131213]],[[0.004243234033735236,0.0013863815151350387,0.0017436376194048472],[0.8520268851160218,0.0015414090909244206,0.0012042740412200846],[0.8458383542056067,0.001081333627522153,0.0005391886783122921],[0.0020378346302732204,0.8380060640662657,0.0012856679513236376],[0.0019803127055537245,0.0016965963504412104,0.8488227501053338]]],"Weights":[[[0.013681867336517772,1.0154977480013838,0.35468334892332887,-0.17177261092930762,-0.731168811416223,0.18927208683516192,-0.7863613916221054,-0.6621074584403939,-1.0696369942574535,-0.5812048323778377,0.03875568515669294,0.6963018904013282,-0.48271910384875544,-0.3493778323309159,-0.3826723711605517,0.02199309264566358,-0.4036150871803352,-0.33240878636429216,0.38730899633823795,-0.45944994550272295,-0.8542747061597311,-0.18174604389848137,0.20095051461429897,0.7248363255155651,-0.3489027331281672,-0.26299642195926937,0.6716872467387309,-0.4931280117156316,0.7301809011892343,0.402271568236446,-0.05907586876670697,-1.629297153151341,-0.7158725165290604,0.26846061306643637,0.9926886283863114,-1.1696941706635946,0.1791832729511109,-0.711641373292907,0.3817405932946027,-0.7685165733054516,-0.8092711081345493,0.19815787771037754,0.12895292039988654,-0.6442469493295648,-0.2071316276123755,0.09445956206831634,-0.754488603199195,-0.4841294852663133,0.6389182888162362,-0.5157558731016921],[0.6024561706282027,-0.28554898514607885,0.8338083112497489,-1.1494702878179297,0.7955737859877413,-1.4447561795278174,-0.5457735118198417,0.3696794022294996,-0.9937675970527827,-1.146956955905861,0.8556689243927398,0.5184590069339162,0.6232608685925318,0.43387047464160455,-0.7677829509128913,-0.190431261651185,0.7922057046649098,0.5010152049799019,0.9760929146046663,0.8679049223117837,-1.1796297987996909,0.3008923041190807,0.9180868359795602,0.8989809547882914,0.007357162763373316,0.4302794165745311,0.5956847364558233,0.14967597667826285,0.3003056776326701,0.14114981950414016,0.4838253725757112,-1.0946813717877133,-0.7548525887591011,0.993483237431062,0.8725653295750303,-0.703562158461266,0.3611303802016081,0.6008262113451531,-0.7517969360268694,-0.16942731951302953,0.17844296298581855,-0.2191972390412752,-0.46958834394944593,-0.09304880491834841,-0.7058703174917169,-0.3489905723287693,0.10771643226757634,-0.6592392483037549,-0.38784174497630086,-0.23745556900773193],[0.05406217029808726,-0.10393574406349848,-0.38811239452631374,0.2048819165932547,0.5594288625839086,0.7338230771912235,-2.006992437270605,0.38850768260158053,0.026443198832798172,0.0915572363436134,0.017125345693821157,-0.4628416273484921,-0.7845875599286519,-1.2318724275757373,-1.6138863418459959,0.8262424088749778,0.13923381661075748,0.16749195642428916,0.44138607581757155,0.752674853475084,-0.19796501614956336,-0.08453013096762153,-1.6549868779329229,0.6678155594188826,-1.016944796276478,0.17127712571283243,-0.6753614297502891,-0.8901470446391783,0.38233647072231475,0.5857072763494838,0.4614930335836542,-0.5162690242154877,0.2072955330606225,0.9120960192569282,0.5028674583279845,-0.4262646586137409,0.5500518637058425,-1.3335668534069252,-0.277478321460242,0.7192462013887685,-0.2457518636184099,0.20984198079260077,0.031528618915082074,-0.5902473466411263,-0.8741465351328195,-0.42427008800019916,0.28081843137316853,0.8755045412465269,-0.24864240509207522,0.13542787275874268],[-0.10880118111755005,-0.04564217812780613,-0.016446032957861057,0.9244836272255492,0.573953520999392,-0.8321744245691135,0.5932365534147656,0.12706607068178905,-0.9624098936454709,-0.5795268246822376,0.5551934351218184,0.31845033183550464,-2.1121599797349755,0.13605268586429659,-0.5198367315232345,-1.0078646290134379,-1.1262594030637847,-0.7435115961328023,-0.7079834900440416,-0.977269688957706,-0.12582914506558907,-0.09664078422640447,0.09872703750690537,0.19824305696336528,0.5191116938373992,-0.15754504544697948,-0.23589641530484187,0.3117388870645016,0.1817644037348925,0.2942708792151253,-1.6946737434433088,-1.0432188797814341,-1.058696337729165,-0.32741918703153433,0.6273993888574321,-0.1544766583271222,-0.5495134614820759,-0.42974717521233285,-0.5342561266335824,0.15698057122192577,-0.1709146911142083,-0.07064082041866203,-1.1397584010774338,-0.33731499705124357,0.6600933467297837,0.3812347996444865,-0.8104692122447588,0.9980587306170812,-0.354313957989106,-0.42092613430621345],[0.6291816113094024,-0.9665677088748098,-0.8926715762322869,0.4379674319337809,-0.5189390099638532,0.6503291915956961,0.9749303547641069,-0.23431402967534487,-1.1801700193418423,0.930797163416998,-0.7385178159099989,0.3020342624208986,-1.6851564720523342,-0.007779157679246151,0.25518243819763436,-1.1465920801545397,0.0650182847979851,-0.5735511879257642,0.7732649615547915,0.6468886000057482,-0.13238797558694954,-0.17601883080053693,-0.2421115829004602,-0.787703118607893,0.4408391656813854,-0.6062485955778348,-0.6057024316299524,0.7780936199172096,-0.7783173974597279,0.5509988810053256,-1.6488162667838624,0.35057124072733514,-0.003084833425525993,-0.039467593184511,-0.8806121488273493,0.5986180414080757,0.5215461956766209,1.0197801322074156,0.7278021045858396,0.7113721762522036,-0.479367335283879,0.7431631781014436,-1.3270433174767995,0.6701560846434943,0.26290053771926764,0.48414021114632577,0.3376851360041701,-0.806391823346122,-1.1477399454403048,0.5233940758892389]],[[-0.49481468600824585,0.41452369082710105,0.5885012225844959],[0.8003183556432181,-0.665122439136893,-0.20163161003789673],[0.22522345530460375,-1.0990169507812928,-0.3695457207452965],[-1.4299488207209021,-0.8749866166907396,-0.6150061967954369],[-1.3574582413241147,0.9635948350004659,-0.6274452985193848],[-0.8117757930796925,0.914784723202928,-0.2961111952940434],[-0.3259325106783769,-1.3787698364148742,0.8023628715006857],[-0.4167214301242714,-0.548156467499521,0.37458749511919953],[-0.9555567347582086,0.3281479229309022,-0.9957510359911188],[-0.8734864293102363,1.1444979954845818,0.926072575408916],[-0.467916682306594,-0.9745554095565848,-0.6941092083126985],[-0.30062069199313046,-1.0511131585157094,-0.22515014966647975],[1.1124882503416949,0.4538755544359773,-1.3898537730649703],[-0.7073320267886224,-0.8672962493260291,0.032769743031604924],[-0.4296442632478055,-1.0048369428646682,0.8058565778327029],[-0.5612707137758597,-0.27058277717372115,-1.2650830367933388],[0.06167032361402165,-0.4627741977606843,-0.9963648014953893],[0.3631573293404404,0.2850039563014455,-0.7019057876469907],[0.4702239469314372,-0.8683466422467644,-0.4844994343190243],[0.5540015110415017,-0.02737210272467749,-0.9577027096433512],[-0.8896661833955524,-0.3760835784115674,0.5772759510640201],[0.8932143305039161,-0.5885515476126343,-0.7138335153862488],[0.407669827115533,-1.2665947688020942,-0.725368914771901],[-0.39717916650330193,-0.8511580600305044,0.03305297592615282],[0.27225473606126016,-0.9096025742566431,0.810519078207892],[0.7486550845188821,-0.3266942446680805,-0.8867156102693573],[0.49435816838370106,-0.8889753465535294,-1.0406967238391545],[-0.46350420349240923,-0.8027203221206919,-0.3105607857311947],[0.4095222865748894,0.5692268858305991,-0.8261382345026197],[0.5820710274763092,-0.18776092655288806,0.8009140466814061],[-0.5644043874128428,0.7518872455199518,-1.5551759669623193],[-1.3140709878869694,1.0931567427624365,-0.8087908013450602],[0.2383911771018729,0.71255276604679,-0.22133480617255752],[-0.06591164559293847,-0.43848049307187736,-0.6354514770166575],[0.8650993018323597,0.5023576656231675,0.7315200400137811],[-1.1027621036430406,-0.2589663230858441,0.3096820826377348],[-0.17887368059030062,0.3885104394677933,-0.9175259395309595],[0.7456988555062023,-0.6739191086089399,0.7623350257689356],[0.3551178423199763,0.12842606869551676,0.3930206131577415],[-1.1929152837459287,0.7405722197888025,0.5232970402800777],[-0.4868803619150649,0.44343931318188967,-0.259189285322078],[0.0028918951623415476,-0.6104816939232893,-1.0537396678675224],[0.4421490409628497,0.2908865026410901,-0.6000301797430136],[-0.36857124253585766,0.6242794786383373,0.3044660220016923],[-0.33958582507164664,-0.08536370918244396,0.07482294363371068],[1.0052711098887337,-0.1968199718468871,0.44896249248277353],[-0.6710440909798646,0.29796643965185177,0.5029872556005066],[0.2051337047978925,0.838150983359205,0.6620324731750459],[-0.21941094016934506,-1.2063650314900538,-1.2432143890979803],[-0.5819925733477352,-0.27053607862868073,0.32123308692513847]]],"Biases":[[[-0.8085683973394147,0.9564815270527087,0.329259291940056,1.0579170283009,0.7710517524396969,-0.21044574261492116,0.3490645985780433,0.9180621654975005,-0.0968337109024953,-0.6289331380675195,0.9953957441523219,0.7103768323224434,-0.5304388735009151,0.6923648682470697,-0.11567311264869252,0.5482566701604651,-0.05737979941715354,0.7649941734300739,0.9092655254814666,-0.9778633178431227,0.6255587067719239,-0.2697827604669534,-0.8196346105094814,0.000016124758884083,0.7597350291603682,0.6806432957732078,-0.8234201507464546,0.39595694665739173,-0.33034992648803513,-0.19207041316120044,0.7659828366098005,-0.5197504811729101,-0.8736480681046049,-0.35227209934226317,0.5200664371006783,-0.15510446871735492,-0.7675350084523183,0.7079399990833203,-0.4266236583222002,-0.5693931759521422,0.3521515714035944,0.5900516848597399,0.5446794711384474,-0.49788333942514307,-0.24675084569288336,-0.9855919004983028,0.6583929490880488,-0.5602446239778778,0.3499911294042783,0.22772190373893494],[-0.3684767326700957,-0.6258194102829144,0.8487906560695457,-0.939629825091772,-1.1226086320375566,-0.5360261327762806,-0.2161051747627352,-0.2765684723574509,-0.6559717723776916,0.7544637663832117,0.35138352907423737,-0.5150917748325524,1.0150319533914367,-0.5062874608460205,0.5970934420884043,-0.6476182716586985,0.9258371888478876,0.36311714129858397,0.9356571529985095,0.7231924011796531,-0.8974667659392492,0.9820258654624531,0.7220860335597895,-0.010785677816088404,0.7754894707179953,0.5643262745663445,-0.28646931178129675,-0.09102759175906577,0.8190334402243492,0.8976275141437846,-0.10945157715550496,-1.1086266995485023,0.9192614409799607,-0.04087731346843196,-0.8678132119789311,-0.6978774543749234,0.8933783738257299,0.6732434890278146,0.06927341656760766,-0.03213275764835654,0.574546410466613,0.03372707550068578,0.19774357938975717,-0.23820254926245965,0.04779549321033417,0.9345346189832148,-0.24183876328340526,0.4367379841274971,0.04329648760625691,-1.1070640043209472],[-0.6336487495552326,0.9711623817303792,-0.21194184409471362,-0.5255407245540166,-0.32675601171679075,-1.3988149779544246,0.8129029031259698,-0.9835879029593763,-0.9289486874450344,-1.5513885222933093,0.7008728931417803,-0.4511281997716788,0.9994149673512536,0.8262303647882425,-0.7917407196439223,-0.4393711754782959,0.06512468910347373,-0.5113125440936465,0.6454157530043477,0.43375465207084796,-0.8468892346646655,-0.18465385036071097,-0.26569803737070996,0.4915713372052493,-0.6787911992775005,0.7305881664356924,-0.366982476750852,-0.9513121194971011,0.9012015707843767,0.836362650792619,0.8974267598802866,-1.8162872194692603,0.4091704015123008,-0.8762580247330068,-0.10505395150024725,-0.396335351510722,-0.38622837804492044,-0.6068134762513129,0.27229445917812445,-0.9883285677063848,0.5986980394131836,0.9624120842755168,0.9301817002526582,-0.7049721092924818,0.360263680084477,0.6862926705981216,-0.24817206001725392,-0.2347903302580851,-0.005518228084789372,0.9138874622960438],[-0.09109982322694238,-0.8548157860573231,-1.3926695391822326,0.5370986947473853,0.6134877719198598,0.3876933303215536,-1.5660223642314826,0.23138123237435643,0.008160563421109816,0.93433000959617,-0.8914598954928352,-0.2412941389981187,0.6872469411900458,-0.7393152962689862,-0.7086844866617205,0.39417806450389486,-0.8764956194697453,0.07325112416807247,-0.6566606792960981,0.24065460536495337,-0.9167096224204858,-1.0037107462403327,-1.3891100498165647,0.8641801801112918,-0.25337803846879586,-0.6207075468942141,0.764715846619649,-0.16349750214465028,-0.12654884526495677,0.30025345573864803,0.7487486086961272,0.8907955545251347,0.13331693831625274,-0.19230605140192936,-0.0725796498988662,0.8918120212933063,0.531874544364622,-0.7251157595717755,-0.49217888832302203,0.49515562101581445,0.13799245141378957,0.43935448553513845,0.34843653377875955,0.5951236256380704,0.349047334451313,-0.711536783231856,-0.12422486695953691,0.556223175957624,-1.1400872894415952,-0.4684492865025638],[0.09035179853564766,-0.7536798870076036,0.9895519085235494,0.28048236720116354,0.43417442579897586,-0.22230576418042347,0.05521374420620133,-0.3970560970161642,-0.1320323182905753,0.7304776756551616,-0.33788941930360555,0.5669751482529369,-2.0253700201324487,0.4040511612553116,0.5434004103306008,-0.5236209436141426,-1.2758168396215241,-0.24219453788814746,0.7482987103035266,-0.3479121430132841,0.4213068062450733,0.11088085596799989,0.6167005895420928,0.7934398588898206,-0.7173689026270147,-1.300676045568466,-0.6138598900082158,-0.01553190708937326,-0.012912990775140389,0.2762999230678974,-1.0710373451994575,0.48184577211837143,-1.0863843163393818,-0.5569911652579226,0.3496275187088062,-0.009405344159244787,-1.1938812326073276,-0.5017532375331406,-0.8107069500705014,0.17466496823112845,-0.5179059963184071,-0.3484878145392311,-0.9330279832427691,0.8005480150266265,0.32789726276473935,-0.12908112866309635,1.0111674000593927,0.33496643008756316,-0.44859455824981115,-0.6310214767423613]],[[-1.2561917959164668,-0.46022981978087024,-0.49188033801193937],[0.10675077267556977,-0.7704491725795577,-0.23787080985088063],[0.8721794101863668,-0.7188005137033199,0.43075151552890906],[-0.9361231953423769,0.3472963685054283,-0.09020794822994602],[-0.8696685893920398,-1.2336281697957763,0.9902378839049171]]],"Output":[[0,0,0],[1,0,0],[1,0,0],[0,1,0],[0,0,1]],"Rate":0.1,"Errors":[-0.09460293002473709,0.0854011166509889,0.07935980343960362,0.07257737126666625,0.06721641948410936,0.06298317552925631,0.05955686205115326,0.05671561731594202,0.05431064426928315,0.052240075770530456,0.050432130035898894,0.048834781883006696,0.047409357394480586,0.046126458918051776,0.0449632989796227,0.04390190839297366,0.042927901695738103,0.04202960724286372,0.041197441705324925,0.04042345202248899],"Time":0.02,"Locale":"en"}
