{"Layers":[[[0,0,0,0,0],[1,0,0,0,0],[0,1,0,0,0],[0,0,0,1,1],[0,0,1,0,0]],[[0.3082653396687307,0.722503318528049,0.581368122776027,0.7422391884136975,0.6835391038722849,0.44806807861683934,0.5864364507031771,0.7149779785807922,0.47568669225073235,0.3483979168340346,0.7302145688501761,0.6704550874105439,0.3680535221516855,0.6663272695897641,0.47233358370049916,0.6338493045107318,0.48534384854267953,0.6821725625463679,0.7124302849652724,0.27276682026995935,0.6519452146962273,0.4302463705339945,0.301436887928779,0.5018750254405614,0.68180300452978,0.6637116548265533,0.3055770447779021,0.5972757459232582,0.415124032428105,0.4529137349952938,0.6823221686045926,0.3707160375334275,0.29496805263345033,0.41356771207001203,0.6270703650907665,0.46234249637481356,0.3186045664689738,0.6702555678875788,0.3955490841952018,0.36230563176798364,0.5873502671201342,0.6430686487958268,0.6327073007605298,0.37671332459654355,0.4377607121452804,0.2702983336272252,0.6587902668881918,0.36413473811759334,0.5868004474036569,0.5575784420774752],[0.40949818321500225,0.5971353435681559,0.7670773804728337,0.2544977553750151,0.12868444532971957,0.41081983454983745,0.2771649033817155,0.30031609709568036,0.14069954681063032,0.5422841458161695,0.5951551807330154,0.5433955843308705,0.6314897990739858,0.2968051290717543,0.5555161869016154,0.34865147223789755,0.6274480116238971,0.5036065862658619,0.7889471095840815,0.5643798333125212,0.13833369738441884,0.6877918129186619,0.7149686295815668,0.6717803115395261,0.611933118904655,0.5752214211543968,0.6013960971358869,0.3633714813378742,0.8243639729848452,0.7860823893189407,0.45774404874817115,0.0564515055277898,0.5519911241743068,0.5571586090927308,0.5281040433377377,0.14840891416353105,0.7457669895503821,0.4968293521593933,0.6120290263244959,0.30956957402147495,0.44066942657153313,0.5618674183608025,0.5830949156046258,0.28668816568605837,0.46131835778792063,0.7366394879269185,0.2568554579739237,0.4865707009168248,0.6621977485441104,0.17262856407874316],[0.4912599985207528,0.6649574039815465,0.6454229138060145,0.1643614651908341,0.6138610647673443,0.053893839469506905,0.5694845603109451,0.3647387259953329,0.1207844947409575,0.06311279364395614,0.8257559927470468,0.5149939867137989,0.8352984549089976,0.7790769000048446,0.17660035600917565,0.3477935256183242,0.7020186555031545,0.4938193357870107,0.8347104074383798,0.7858867218299644,0.10954131704208588,0.5240915194364402,0.6571069946051967,0.8006910553186614,0.3508176272998757,0.7614484597135591,0.5624228686682543,0.31513073544795944,0.7682106413970189,0.7267956901074801,0.7993255231655486,0.05004208630738046,0.41599616656689004,0.5293082275369952,0.6817288317806242,0.2646081691220347,0.49617634863565546,0.5020466736480468,0.38389328840803505,0.24055106446211774,0.6850290133866993,0.6792991133810307,0.6145702014744993,0.3071729186093643,0.416330172402074,0.5829849700295541,0.4588136947119942,0.2874637141217999,0.3964843080927144,0.664603437813927],[0.5805313944203819,0.1971886124720326,0.08796347382926357,0.8742751558465836,0.6195962051474311,0.5304476586537995,0.75797333071066,0.5524593480483717,0.04906301215355945,0.7666929371824686,0.3032290868565963,0.6654360652734521,0.038265018098074054,0.47263658282507354,0.5263150297632191,0.14232947148892788,0.11277156309086349,0.14839321505115696,0.2895468184522586,0.5010093350928971,0.36749514010593,0.09135945480397767,0.18110572705537767,0.5953573432577068,0.751099849233919,0.2307823900797071,0.6408567197370028,0.7631334670973277,0.11776808863143325,0.7705725069586266,0.04546236030218974,0.3591303790861331,0.2891139284511644,0.385459021999936,0.39608599008086115,0.7689654779595375,0.7026968443372745,0.6373723949456476,0.4424453748492072,0.7844646111172576,0.30449587693541147,0.7805492420889109,0.10716643880491203,0.65828878409586,0.7678871066777562,0.5772113417073661,0.36948518749126535,0.6756737878608042,0.07204413528236368,0.45595762660868105],[0.5591128647827278,0.21430039544411011,0.7373494893231571,0.5920227145321103,0.7613167677276028,0.682939939653036,0.05427883033440038,0.21981112027210906,0.5823233761882978,0.718259560725265,0.38700303901538435,0.5233498055565075,0.23019126021331496,0.2938846631758659,0.1345211057829122,0.6419412972797135,0.2856723918320506,0.5901825033720791,0.7963293903919675,0.6547674871242889,0.5283071613095632,0.588813698761247,0.30225422888732645,0.7735571246395967,0.017176570127439113,0.275520251660822,0.06455092986492189,0.21953200493771047,0.6701752686383233,0.6822169798420564,0.6267093038723771,0.6264736193487846,0.42237916954083854,0.5765302247848635,0.7089337927377466,0.2922237707265868,0.46021174204514237,0.034959620408423715,0.22836221049254024,0.725927819949863,0.42167094207160954,0.40723909420351523,0.40084379677629045,0.5908098792589906,0.3868976210632251,0.34454845761571096,0.7689963464503314,0.7756505045061354,0.3578422184726198,0.25480547484396776]],[[0.004285763523482249,0.0014667453442791746,0.0015576792525399954],[0.8511506227471678,0.0015910713561048714,0.0010881547198056147],[0.8457460722113717,0.001107596057663429,0.00047340668456353634],[0.0015936528671662673,0.0018168347862315395,0.8526653920987418],[0.0024977649393029384,0.8334753907586229,0.0014371587545127483]]],"Weights":[[[0.008059177187283684,1.0174301433534958,0.34888704147340394,-0.15345445736467778,-0.7606005666615678,0.18236047937278177,-0.7644123413741292,-0.6156660374623514,-1.1115785552197093,-0.583063533146027,0.03634525210044258,0.6927069156912936,-0.4795688313037825,-0.35282431577223966,-0.3783908517856074,0.022319634394932564,-0.4040840263239033,-0.3405496661956949,0.38512117982399213,-0.4618427724350686,-0.8930035763723343,-0.18697797314702702,0.19925195111003097,0.7259351034908665,-0.33447345443341897,-0.2620678458970394,0.6847210701306515,-0.4814305283253823,0.7286728913713286,0.4030573589854612,-0.05952611699562821,-1.6684681276129212,-0.7132075175426111,0.26948810503095155,0.9865183129742738,-1.1094758921444852,0.18098344680969067,-0.6987838118424179,0.38415818001961965,-0.7692580813833083,-0.8111315939634014,0.20658757575151165,0.13335036953717527,-0.6587839929009323,-0.2049817432226145,0.09424984608004651,-0.7875134488819321,-0.4872987941170863,0.6343626784731737,-0.48790167081740476],[0.600570676465527,-0.28562302923551874,0.8223650823926358,-1.1250288248600522,0.7929505904134183,-1.455639904468348,-0.5394639655783608,0.3992061069329558,-1.0249205128587358,-1.1466039151512681,0.8553193477231033,0.5147905708142023,0.6237499874366638,0.43396759500984017,-0.757797302082528,-0.18990614498176842,0.7920050559193732,0.4938019164393472,0.9750314834609562,0.8672288601296051,-1.2140877327694037,0.29099345547070415,0.9171066354886437,0.8990143424110997,0.035350593602605576,0.43016417439472976,0.6068341125350529,0.16237385834403947,0.29866952642838845,0.14160633604609635,0.4842414058648542,-1.1109737285162744,-0.7516272459702539,0.9935543581011997,0.8696737514151416,-0.6646900713341518,0.3660319273147646,0.6079132139565725,-0.7485734788210772,-0.1653797220068538,0.17836279382642775,-0.21552832182365983,-0.4666029757653725,-0.10072315002903987,-0.7019954138520713,-0.350122050773927,0.09538456722196156,-0.6660915579591463,-0.40122954718070797,-0.23373305104217781],[0.042354517767533656,-0.22306440163348357,0.07165940033041691,0.1738222945818377,0.5818178525977711,0.8018763254146317,-1.9424164997542062,-0.028505019130477878,0.020540337375840725,0.12075549179933075,0.08073003219915528,-0.3219519356113021,-0.7157232698110877,-1.090771230149312,-1.5592861342796966,0.8137560274378447,0.13017463051593373,0.17588577782575324,0.6093675878853273,0.7455599494264603,-0.08106125434580627,0.1368619747992859,-1.2218664182016674,0.6497060342930944,-1.8396832441998157,0.07691324866242755,-1.4248375045460628,-0.9511767442093394,0.328083014003553,0.5687252830838133,0.6282566986077687,-0.504332957673436,0.29851610333943934,0.8756219068839145,0.5083005575817627,-0.5685151211314524,0.6512850178753116,-1.7250208733848946,-0.3312695917470152,0.7551160617250743,-0.15470403038811964,0.07256571067550355,0.02537416389745703,-0.6268064863724829,-0.8668220053547575,-0.37445854310518917,0.2219648664971021,0.8822467726267903,-0.08468420184027037,0.045376938800267705],[-0.10472172467489063,0.04093906286650814,-0.19168491417641376,0.9207629995215674,0.5542413090827673,-0.820245989411479,0.6279929062920057,0.01449460753472537,-1.0891464798283876,-0.5930121763061561,0.5473412501893946,0.3237764700845141,-1.6618719354249871,0.19288811897969285,-0.46036343714667277,-0.9177464880302528,-1.088524792701807,-0.770449198242386,-0.8640987466680167,-0.8628386963544586,-0.029779321486222737,-0.47359043084343366,-0.11491308292864229,0.16987898339544924,0.4293854703594207,0.019767125462137086,0.020959843644099783,0.31272013798590914,-0.09909375296498286,0.29492395131602667,-1.5798266151432656,-1.1264253148547125,-0.9212275750824471,-0.28770548589584055,0.6043467661520956,-0.253780552363287,-0.3368005449237991,-0.4299763926693434,-0.519064457524465,0.13590596270049252,-0.18692981904200234,-0.0057072091055832405,-0.9696897724807815,-0.3513666592159442,0.6586286918363075,0.37061357051391214,-0.7801502333956526,0.9989293963864734,-0.3973090851603192,-0.49029124089484905],[0.6332610677520626,-0.8799864678804952,-1.0679104574508396,0.4342468042297988,-0.538651221880478,0.6622576267533307,1.009686707641347,-0.3468854928224084,-1.3069066055247616,0.9173118117930795,-0.7463700008424228,0.30736040066990805,-1.2348684277423436,0.049056275436150015,0.31465573257419605,-1.0564739391713556,0.10275289515996205,-0.6004887900353482,0.6171497049308164,0.7613195926089956,-0.03633815200758318,-0.5529684774175662,-0.45575170333600784,-0.8160671921758098,0.3511129422034068,-0.4289364246687186,-0.3488461726810103,0.7790748708386185,-1.0591755541596033,0.5516519531062267,-1.533969138483819,0.2673648056540546,0.134383929221194,0.00024610795118306045,-0.9036647715326858,0.4993141473719107,0.734259112234898,1.019550914750408,0.742993773694957,0.6902975677307693,-0.4953824632116726,0.8080967894145218,-1.1569746888801464,0.6561044224787939,0.2614358828257911,0.4735189820157515,0.3680041148532755,-0.8055211575767298,-1.1907350726115176,0.45402896930060305]],[[-0.4863099085097,0.5250425839020362,0.511006595105676],[0.7879812332681622,-0.7190789445589302,-0.1598179589058366],[0.16570670399120044,-0.3694503142049658,-0.7870515335959118],[-1.3891844636740496,-0.96678686640168,-0.5842072835433513],[-1.3739202544944336,0.9879579096979743,-0.6402155718371605],[-0.8520165788405315,0.8079410704869016,-0.206563837422486],[-0.25344151895790434,-1.3154187224693028,0.7331473622086782],[-0.35733597166782705,-0.9796120825879178,0.5910503425944497],[-1.0078843965189799,0.47074997762056686,-1.0598085391629488],[-0.8696234068072749,1.1326420258984693,0.9271977525209194],[-0.48333357081656125,-0.8653579685094026,-0.7536490663292875],[-0.30465146029893003,-0.8434931750797052,-0.3425290520304356],[1.1279603643385192,0.14865964307073506,-1.2276059648647082],[-0.6761103908123429,-0.6464814440565579,-0.12467858991896857],[-0.40520107979956044,-0.9343761648590593,0.7533105023689919],[-0.5924060523340807,-0.39265350526830356,-1.188357090568385],[0.048149956198094646,-0.5074385413102099,-0.9645326889465995],[0.33280979425157603,0.3567121901004181,-0.7336548642767154],[0.4839745902298448,-0.39160277215012024,-0.8092421667060735],[0.5144825345552652,-0.11878096930400875,-0.8751837561079949],[-0.9269146016411497,-0.007129943982178992,0.37347359555895426],[0.9040773435647329,-0.1426701348209738,-1.0115849702247546],[0.4848449229885088,-0.8451290547976998,-1.0519572020452024],[-0.4283252391857961,-0.8829304441254177,0.06178977945604491],[0.31185752691553154,-1.3059380944005958,1.0479660239656479],[0.729410249976468,-0.4623878253007719,-0.7855429348140623],[0.5068461946631815,-1.4566312135472037,-0.6808235778468248],[-0.41697322417381094,-0.865720706779457,-0.2882984849902843],[0.4276789433072884,0.7940813364237589,-0.9964766900008931],[0.5875147628736964,-0.204078266872109,0.8048464210922717],[-0.5784781877591654,0.5561934959811897,-1.4573169773066508],[-1.3114466484433474,1.17841033378111,-0.873579821100283],[0.21309338723391802,0.46985833232488705,-0.05991109142025888],[-0.09182216157060775,-0.5323918763136314,-0.5678856633929208],[0.8549374575142337,0.6869180070186508,0.611858156697676],[-1.0433351225406937,-0.6572661011603315,0.5145729156097806],[-0.2382621219667296,-0.09096431565016869,-0.5668624219731001],[0.7646076818622913,-0.8584004150635453,0.8840544913835678],[0.35478680575335425,0.005345614202585446,0.4759439815650203],[-1.1918504200594475,0.6894105018165391,0.5486451317266829],[-0.5077870247861006,0.34849492499346896,-0.19118887677553031],[0.02691867867420961,-0.9065946365091252,-0.881675117582034],[0.4454347947063412,0.06934891655622022,-0.4843042252110751],[-0.35305561719427686,0.7752285029187567,0.20123141286231228],[-0.30761309643016727,-0.08524611046130756,0.06348435090257502],[1.0320764097045316,-0.07102559525380052,0.3586842367807167],[-0.6767547961287292,0.7083544308758305,0.23644769589974982],[0.18480858572385533,0.824640563004557,0.6779767001385518],[-0.2730813521239385,-1.022606154913909,-1.3182230755265985],[-0.5656535718707923,-0.4616259332361189,0.42042553080438094]]],"Biases":[[[-0.8082415387256588,0.9569130386390984,0.3283921991302639,1.0576394795384343,0.7700841827406046,-0.208479525775262,0.3492531197919192,0.9196852976108062,-0.09732999323367315,-0.6260888079998926,0.9957114772729678,0.7102440668175547,-0.5405763353887976,0.6916202820858139,-0.11077881564600485,0.5487662511675986,-0.058641404794509834,0.7637740641239975,0.9072167437733523,-0.9806298765180785,0.627600635439043,-0.28084603904176986,-0.8404648610129742,0.007500136920223641,0.7620700928644981,0.6798788382764404,-0.8208792812197411,0.39412679803250567,-0.3428224546098516,-0.18890481878874385,0.764464173867573,-0.5291462334323198,-0.8713760628815298,-0.3492359557765805,0.5196690038693981,-0.15091579650332834,-0.7601920733109585,0.7093411779853749,-0.424045582555802,-0.5653709796388344,0.3530222203485625,0.5887080120862486,0.5438488393462422,-0.5035220801077909,-0.250255096589747,-0.9931094860476095,0.6579078828637475,-0.5574627297018104,0.35075415424771045,0.23134001821230138],[-0.37409942281932895,-0.6238870149308008,0.8429943486196201,-0.9213116715271424,-1.1520403872829017,-0.5429377402386611,-0.1941561245147595,-0.23012705137940861,-0.6979133333399459,0.7526050656150222,0.34897309601798737,-0.518686749542587,1.0181822259364086,-0.509733944287344,0.6013749614633473,-0.6472917299094297,0.9253682497043193,0.35497626146718125,0.9334693364842628,0.7207995742473072,-0.9361956361518524,0.976793936213907,0.7203874700555214,-0.009686899840786833,0.7899187494127448,0.5652548506285752,-0.27343548838937703,-0.07933010836881606,0.8175254304064435,0.8984133048928009,-0.10990182538442614,-1.1477976740100835,0.9219264399664099,-0.03984982150391631,-0.8739835273909687,-0.6376591758558131,0.8951785476843099,0.6861010504783037,0.07169100329262437,-0.03287426572621452,0.5726859246377609,0.04215677354181991,0.20214102852704607,-0.2527395928338265,0.04994537760009459,0.9343249029949441,-0.2748636089661417,0.43356867527672405,0.03874087726319395,-1.0792098020366603],[-0.6355342437179085,0.9710883376409396,-0.22338507295182627,-0.5010992615961383,-0.3293792072911141,-1.4096987028949552,0.8192124493674506,-0.9540611982559203,-0.9601016032509876,-1.5510354815387175,0.7005233164721437,-0.45479663589139196,0.9999040861953855,0.8263274851564775,-0.7817550708135591,-0.4388460588088791,0.06492404035793697,-0.5185258326341985,0.6443543218606377,0.4330785898886689,-0.8813471686343778,-0.194552699009087,-0.2666782378616277,0.49160472482805845,-0.6507977684382675,0.7304729242558918,-0.35583310067162205,-0.9386142378313251,0.8995654195800951,0.8368191673345742,0.8978427931694313,-1.8325795761978227,0.41239574430114695,-0.8761869040628693,-0.10794552966013561,-0.3574632643836073,-0.38132683093176395,-0.5997264736398937,0.27551791638391765,-0.9842809702002095,0.5986178702537924,0.9660810014931318,0.9331670684367321,-0.7126464544031732,0.36413858372412267,0.685161192152964,-0.2605039250628681,-0.24164263991347598,-0.0189060302891961,0.9176099802615978],[-0.2035841471070372,-0.564911702154743,-1.079163010080126,0.5842896035065308,0.47224459006570985,0.27992987606695907,-0.4960793364286338,0.5430033618405894,-0.5682892818736696,0.8654312909533889,-0.6329393484630748,0.056477695742313844,-0.3274624497279823,-0.3515075321095384,0.25106517294745967,0.17814499266077538,-1.0769663833799814,-0.37632130299682304,-0.6506370028447546,0.10555644960115831,-0.47686033634143893,-1.2705888895484414,-0.9382092082838966,1.0323456623617788,0.3239883702991802,-0.7947293758164646,0.9069708165875647,0.07814110107841066,-0.8554683123307059,0.36497080456287323,0.06945341479090358,0.27991996797764507,-0.11284770765753434,-0.1789813449087548,-0.1224824803850426,0.9569453359506502,0.4627146557557762,-0.025596856170668387,-0.4551727868787123,0.46567281699758334,-0.14366711067811078,0.46648037828416317,0.006647408266175467,0.3509399709700182,0.2763542887091136,-0.5327965047013267,-0.12227987825543146,0.5405523215549646,-0.9676610930646218,-0.14036498339880135],[0.19520792632784884,-1.0761313874858538,0.9605782930596216,0.19851120872661918,0.5780943857503646,-0.03456062654478663,-0.9153969932030092,-1.238262391361521,0.311778079364329,0.8150892981297424,-0.5406574647604565,0.4154191434987049,-0.4915082947868687,0.21418002763768612,-0.3022757473357161,-0.22995611222497067,-1.0466706514441348,0.18883410856862895,0.7541412892959642,-0.10549789869486666,0.19441110554915092,0.2222014584259876,0.38528008730513186,0.5788007779456285,-2.207199982796305,-1.0437059227875058,-1.2487346758229632,-0.3172189589611877,0.38089486287197144,0.19525365307890352,-0.11013135797007786,1.0214509901346334,-0.6115303374400594,-0.5670762829884166,0.38191082574342367,-0.31609301537046597,-0.8107752732707355,-1.5929553783692276,-0.8863126526924671,0.21894302406423327,-0.1612137289240108,-0.4479563660922739,-0.4273246841511576,0.9941208677986214,0.4064501833915252,-0.2686310914291916,0.9806878253283255,0.3582501816398779,-0.5000576785461914,-1.1185218203932334]],[[-1.264380971222209,-0.4728048258700337,-0.4730978486969007],[0.10857146885694348,-0.791564019210238,-0.2233621952046302],[0.8665869379487072,-0.7299779706092494,0.43835789565612554],[-0.9664566637285602,-1.1222421489073646,0.8575559746944548],[-0.8312805884070147,0.30205358592951675,-0.012587420838801907]]],"Output":[[0,0,0],[1,0,0],[1,0,0],[0,0,1],[0,1,0]],"Rate":0.1,"Errors":[-0.10301167971262899,0.08549471464934712,0.07940562693779131,0.07259610707181428,0.06722297072781067,0.06298749429502805,0.059564384505098905,0.05672913002253359,0.05433147512257707,0.05226875277431462,0.05046874117567668,0.04887917460810245,0.047461251271672764,0.04618551023353215,0.04502913811265319,0.043974161427474005,0.043006202745565866,0.042113605234412134,0.04128680382642187,0.04051786516381815],"Time":0.01,"Locale":"en"}
