{"Layers":[[[0,0,0,0,0],[0,0,1,0,0],[0,0,0,1,1],[1,0,0,0,0],[0,1,0,0,0]],[[0.29911121395273954,0.7235319512700612,0.5796564568116142,0.7390564919208823,0.6800648864863884,0.4372036659293912,0.5901710655586824,0.7125351750629093,0.47336773594532244,0.326644056888282,0.7343738945701622,0.6618163161871324,0.3892707602229349,0.6680653865524356,0.4635755221386473,0.6282899330157534,0.5107246037329127,0.6795383129825938,0.7139585482799444,0.2847573036421244,0.6499906748538911,0.4316203655619182,0.29336739168902126,0.48831391377151423,0.6804709459130452,0.6721397638146488,0.26900297939831536,0.5883096768439526,0.43357730292512636,0.4563307730274059,0.6852618694607034,0.34516524082455224,0.3289447254374627,0.4048921191094231,0.6171051963310208,0.4520709979748618,0.3338006609280689,0.668002675767838,0.40974821913939513,0.35531096040009563,0.6024935419644741,0.6456875044987743,0.636996193419605,0.34870716011386205,0.4356123767339437,0.2919601318184456,0.6557316642710184,0.3533050221759384,0.5893337464053499,0.5712000462711889],[0.5134111695742666,0.1617318560503499,0.6977680052308375,0.21128782565041337,0.6172270272290371,0.6427597454713407,0.06485945206304601,0.4249302982803819,0.4898157574717972,0.7488961718160748,0.6462676455180029,0.09996369671352621,0.5395867047632832,0.1946592576321475,0.2823866425769091,0.4766906300649354,0.7587274409422614,0.5950936932686328,0.8174982113114988,0.7968326910991037,0.32208114868882826,0.7326089742569171,0.2861368910768463,0.6098796022346239,0.40284282193869714,0.6629817511569918,0.03501724843386152,0.1651099969180898,0.7563430555059562,0.8146464901682401,0.673530083819582,0.47093576953892297,0.759693002155103,0.684052252498351,0.2581750285980747,0.2757348700139601,0.8131044138162397,0.2345620831089973,0.4689434763935368,0.758750299968254,0.6529186854637423,0.48269418110754136,0.5499752842033155,0.3723913770226502,0.3307605754148795,0.6521176471994417,0.5913746327411271,0.7951839468563529,0.4784919451106682,0.3820078448553475],[0.5555914141641776,0.5287176169262111,0.1627091116945589,0.770587665311292,0.4131052523688553,0.2043216277561031,0.912567851636086,0.35396323272009733,0.04208331461542909,0.47016351205316886,0.6426812866126188,0.5149046679172786,0.07541467780690216,0.7286256634170878,0.46755122125541243,0.03770098190915227,0.357355495082736,0.025134299204386628,0.6513717372954251,0.5552040754941278,0.4603788971903228,0.08695954645347811,0.22431363637269236,0.5342294937091179,0.5492229652373228,0.667626978925493,0.0833338494377535,0.4981362181048447,0.6317787962819588,0.8375321445021111,0.07544701996433957,0.036587341256976276,0.45289078928471893,0.16571492526717974,0.30197643299055765,0.6354067992414618,0.4688150081343338,0.43416107853575814,0.615450364545414,0.6435825089255621,0.5593164689043286,0.849817882487667,0.21078515964643998,0.3653100708416493,0.7973170281313696,0.8034131543922626,0.4248740778066879,0.4405754987692317,0.15250828939243974,0.6916882662556714],[0.36959082953585715,0.6488942516924446,0.43340467946021616,0.6150547186526331,0.4940890418018086,0.6375639653452712,0.1622277573502349,0.4380658489983827,0.15837696668151824,0.5202545042099321,0.20337278547182155,0.6949677072195399,0.5581716039879574,0.19501549349679687,0.3521702034364058,0.6156359975127538,0.12600225018919914,0.5066702964803164,0.5437187596450376,0.4932973132259619,0.10276637850314715,0.47008385560311505,0.4937373740237308,0.8344289843114682,0.5222169454917845,0.3619267804458217,0.8237580419234276,0.4541333570871039,0.5825189922438763,0.6857423630367053,0.6401015140266718,0.2564795491628843,0.21197907749946351,0.5544942748450479,0.7364203089729708,0.4453201873558466,0.6373367240043755,0.436631130311678,0.4382715177281931,0.3129501050200973,0.06931457698135902,0.6652135290870977,0.6147022038159281,0.4798551546571881,0.5056623922466507,0.45034331594489985,0.2152244243905957,0.5412208051384971,0.49181471644168606,0.13053751123100824],[0.6515313161181132,0.43786230624731476,0.857367764338273,0.33909512097825806,0.7890248028125099,0.15348550609447886,0.33120839519361894,0.43763098301636344,0.2620030129173048,0.4800718165317295,0.5349306102314758,0.7558725597880873,0.54937280689136,0.6445771186107871,0.3682751825652934,0.45614527102376856,0.3398317439357271,0.6673374727666398,0.8531611542762819,0.6989883950426939,0.23047655851446203,0.652753845556625,0.826254841562661,0.8218171314604907,0.3549185069132154,0.4527803391587669,0.6444232443565319,0.5696196750010326,0.6164513451943051,0.6156869593677993,0.43806161679250527,0.5255367163371325,0.07905590606720786,0.6370065698981827,0.7851914404287506,0.2436578164560359,0.26067820280845877,0.5629787616009231,0.13472751052680867,0.48934961497514895,0.14868277255465837,0.4399179446075558,0.32527488816830913,0.7073528997172819,0.3857579984188027,0.43889427306302714,0.7564815435002625,0.4519752373252652,0.34191320617166804,0.055740874271830755]],[[0.004270145250277601,0.0011440055421410534,0.0017716146642252418],[0.0029459476763389987,0.8335875102579523,0.000920229102074825],[0.002044643218390803,0.0018762925635627083,0.8475805067320594],[0.8415040076737226,0.001914140736878712,0.0012067379316172062],[0.8373177733193583,0.0015839026500758429,0.0009297761228620628]]],"Weights":[[[-0.02465746809736061,0.9979452346043571,0.48270498384748145,-0.11769800861744788,-0.3433951515082209,0.3117573309051158,-0.9762343424637216,-0.6254938390176008,-1.129050003063144,-0.5778114509672274,-0.3171459316522388,0.7049718044706741,-0.43445221587371163,-0.5763972815760703,-0.44214249993836585,0.004633626980371917,-0.7673243335985148,-0.20582879114617691,0.5003642588749563,-0.4168547586391669,-0.9793123155848973,0.1603922886986289,0.3989438043936941,0.7271500594522149,-0.2938991668487367,-0.23221494771254156,0.5560773073448991,-0.422389858645289,0.6937152861663282,0.415195946951159,-0.02574323244128506,-1.2377254241866689,-1.0004110618439095,0.2932028518552677,1.0259247528471416,-0.9833897731399173,0.13264764741307886,-0.523491868731563,0.31951761351775254,-0.8115444557615228,-1.5490690105494769,0.1418165762113722,0.12086801290330278,-0.4443254657299194,-0.2023134243472296,0.18236105165781433,-0.780179170658447,-0.4052608074421238,0.6458685259865983,-0.8729395669676018],[0.6820924929204112,-0.02637044218864474,0.7965540712066568,-0.8721632971069999,0.909126464484107,-1.191785035990903,-0.6430965213214298,0.424497298249744,-0.8218794146385974,-0.5733900636163691,0.7095372838249292,0.5286363452349457,0.7583447246567582,0.37349504188365756,-0.7182350414143652,-0.05354357961704573,0.5635583577283861,0.46487053844838455,0.9709437130840352,0.8909720849234832,-1.1081525117881141,0.16588975637922312,0.8768052161530255,0.90891904545423,-0.0167250930139176,0.5146425313299217,0.6726964666256695,0.2132946618562581,0.2677162405943337,0.15974692357627684,0.30666308557761496,-0.3382933253605158,-1.1811577979753032,1.0128366263505366,0.8568637300052396,-0.6644979191863891,0.17779334878585865,0.554173044739964,-0.9226203153729229,0.08442697108500204,-0.4783317934381932,-0.11862826322076615,-0.4000396962528752,0.07626324683845928,-0.7071733348309381,-0.32911460674022264,0.22609630507363387,-0.6372069504014092,-0.4104597224899098,-1.0111475808510375],[0.04816026017728628,-0.31745461852841295,0.05687909357673604,-0.08876682850928973,0.7391605682522585,0.8000411913725601,-1.6844884040273427,0.23549680251888114,0.07581033045185394,0.0754888732757179,0.23378813359015066,-0.8971388566305618,-0.8541286544466805,-1.0103058990165859,-1.2714248996554571,0.7350845956091404,0.21493157839280055,0.11105920884691693,0.611890787064733,0.7514449887415909,-0.09526040022687306,0.16135822239005437,-1.2620863265960034,0.5745554317659877,-0.8024340916681258,0.2693455716811086,-1.6841628857855733,-1.0443210689485227,0.24922936047817415,0.6102421118125725,0.5573031139619715,-0.31650982670289496,0.13881342115939585,0.9093190703790237,0.17803457409391052,-0.5042145381481304,0.536409846276989,-1.191962942917065,-0.24221684422044917,0.7351363845808806,-0.31739820123015067,0.1343246821860173,0.020128815858105057,-0.6526794177819378,-0.8777953541174044,-0.24422674556054283,0.2643431404849836,0.8653275022870958,0.03825011562279486,0.28190762088770355],[-0.07204998706186791,0.09671581744040238,-0.17391349966644554,0.9317392250553586,0.5015541946593746,-0.9405880934220963,0.5755067639512003,0.17910980237626173,-1.0647902469674078,-0.48945323036853455,0.549828928100659,0.2900081715567619,-1.5716145094987415,0.1064768311859382,-0.3491432341180201,-1.1349996956718857,-0.8975535646046281,-1.1835299225887628,-0.7213512862128255,-0.8457014146454986,-0.007150770139911186,-0.5648493070141485,-0.1427832972270984,0.215386967210816,0.544798291460579,0.2567564182201233,-0.4794100528366064,0.26938642614350355,0.34426640300518374,0.2859323238493963,-1.483777909668176,-1.563068657774271,-0.8246241341038402,-0.42274084593516265,0.5026505637652113,-0.15121427387170652,-0.40075616221805316,-0.4299537900838251,-0.5179889732807285,0.20877026178910071,-0.10490964358548419,0.0037895048220978377,-0.8896566829956345,-0.45192170498785433,0.6606773780325366,0.39749016179790436,-0.7451352845011504,0.9619960009052175,-0.34784649919362937,-0.6283118928403494],[0.6659328053650845,-0.8242097133066013,-1.0501390429408715,0.4452230297635903,-0.5913383363038707,0.5419155227427133,0.9572005653005417,-0.18227029798087235,-1.2825503726637806,1.0208707577307012,-0.7438823229311584,0.27359210214215585,-1.1446110018160982,-0.03735501235760448,0.42587593560284853,-1.27372714681299,0.2937241232571414,-1.0135695143817267,0.7598971653860076,0.7784568743179556,-0.013709600661271606,-0.6442273535882805,-0.48362191763446366,-0.7705592083604432,0.46652576330456486,-0.19194713191073248,-0.8492160691617165,0.7357411589962128,-0.6158153981894376,0.5426603256395962,-1.4379204330087294,-0.16927853726550254,0.23098737019979979,-0.1347892520881392,-1.0053609739195704,0.601880425863491,0.6703034949406433,1.0195735173359237,0.7440692579386935,0.7631618668193789,-0.4133622877551547,0.817593503342203,-1.076941599394999,0.5555493767068838,0.2634845690220196,0.5003955732997439,0.4030190637477768,-0.8424545530579854,-1.1412724866448292,0.3160083173551028]],[[-0.2587849845926813,0.3927089649395405,0.49478520298664597],[0.5349030874019008,-0.8412008996832411,0.0804127920433965],[0.21523665174491452,-0.4654632748761643,-0.6818480832963302],[-0.7496538927998687,-1.4869387365158087,-0.6462324877441651],[-0.7221086291617563,0.5984658085732518,-0.8258510098091909],[-0.37977323462276563,0.6967739879441605,-0.4329486496432167],[-0.665731239557268,-1.3112692140522824,0.9305341789219329],[-0.1270705640916004,-0.841768419430131,0.3358772610910291],[-0.7739208126584605,0.24966774850616383,-1.0686873642116868],[-0.3034196764268588,1.1039764447604412,0.6706553774409496],[-1.2769144573519637,-0.6095354084781711,-0.46763708932906306],[0.5103331029231347,-1.3272626988615799,-0.45103248718138494],[0.6494787814781369,0.5471400003661318,-1.2075661584674207],[-0.8870079512409492,-0.8442120321093503,0.125484657105292],[-0.30469557467416714,-0.7786595255325697,0.6764752921983664],[-0.05878194402733168,-0.7023014273755522,-1.3266802627833834],[-0.9858465466276743,0.10591575693404613,-0.7832458788357738],[0.6783144309080961,0.31878215962287104,-0.8878469799725959],[0.1894961202142755,-0.49096922311008073,-0.5282456242241532],[0.2655562523807012,-0.037898244486597364,-0.820493818602676],[-0.7907168232789474,-0.3296515791806589,0.4801765833639172],[0.8243209689268317,-0.032952868731777746,-0.9740577199026679],[0.6242864001265563,-0.8667836242838652,-0.998580358245239],[0.028387504349681725,-1.1785901725867958,-0.01345725964965649],[0.19466828517248505,-0.7538602401426938,0.7940081682826073],[-0.1664628570991374,-0.1065982270826309,-0.5092053705826416],[1.3206026960322093,-1.4423973195256852,-1.1160138569694766],[0.09843711264003717,-0.9268765918186352,-0.5134916109893735],[-0.07960561874423636,0.803141208750924,-0.6495074259318719],[0.31267529382241044,-0.11682161836750261,0.904610337954236],[-0.6850353423009422,0.5649908722517354,-1.4732535915290192],[-0.39204292344187647,0.8369598186614449,-1.1636446238337752],[-0.6416925816361722,0.952948459458454,0.082145784333497],[0.15048280199810782,-0.47389220811661303,-0.7431425236948351],[1.563644287558744,0.13340345820645086,0.5716400136645992],[-0.7357245532081871,-0.7546649442086736,0.3525375102030807],[-0.582043681232657,0.43126936781348585,-0.7311010306964892],[0.7991993520635765,-0.520346596544784,0.6735916775826175],[-0.17834821547066482,0.27166090696863604,0.638244526240273],[-0.955851002730215,0.627761778105548,0.43710920624707006],[-1.4542354464396527,0.7365400028208602,0.035059405205210045],[-0.1976221062748423,-0.8802106436998388,-0.8162342969161869],[0.1287678243806475,0.21898177660890403,-0.4226586677043071],[0.4674474607231474,0.43174657751830964,-0.006481731180358977],[-0.26082220108065957,-0.18487017694495292,0.11930469919295318],[0.3671730718954851,0.23726386352371068,0.5819939661211169],[-0.3471316766386404,0.32738522248002716,0.2899248342199143],[0.45114022108630064,0.7634367914567226,0.5376103353758672],[-0.45078831739258196,-0.9161515959479036,-1.2459164950850916],[-1.3519344674342006,-0.37554064895490075,0.6889418115649674]]],"Biases":[[[-0.8515337667639047,0.9620494490287385,0.32136327530728026,1.041070422008531,0.7540700099582038,-0.2525186702010693,0.36467259693724013,0.9077287747261962,-0.1066299729435531,-0.7234030130483361,1.0169285907769943,0.6713988583358163,-0.45037857500246553,0.6994480507341478,-0.14595647341991555,0.5248875761412476,0.042904995484732686,0.7516508881542683,0.9146881686222177,-0.9209846692521598,0.6189982190050124,-0.2752431474845431,-0.8790851619552624,-0.04675285920244586,0.7559369201825682,0.7178788923821341,-0.9996869285865122,0.356982046661179,-0.26727051099285465,-0.17512309727221642,0.7780600949344914,-0.6403596664613759,-0.7129617811145413,-0.38512204247791787,0.47727921845324545,-0.19230647754347732,-0.691044942434559,0.6991652698267694,-0.3650063216885174,-0.5957747405476914,0.4158657659835359,0.6001363681897521,0.562350359103672,-0.6247268847121515,-0.258988487000317,-0.8858831450210003,0.6443302578739988,-0.6045429732606485,0.36121180587562257,0.2867489901843243],[0.005497288346996836,-1.3279436573237475,0.7798126661444875,-1.2284133212036532,-0.26136571169514017,-0.21267872049427586,-0.983985779765263,-0.5380629049234565,-0.11655293555340557,1.0172449665219374,0.36888502994597117,-1.300489155654235,1.0128075854084881,-0.40970893796079083,0.33877117990443567,-0.82838970811629,0.9307837867720745,0.2740039530413965,0.8875979536987153,0.6151699233046951,-0.648963663863046,0.8465417748181394,0.3478654432721539,-0.1277492711659762,0.4088001989587662,0.4072648137201391,-1.6321065888756345,-0.5763670146108237,0.8835044190915203,0.8702472872791394,0.16689174463875578,0.2001216978857095,1.0121837223767807,-0.1368616070394462,-1.2335101415093745,-0.4615032007017451,0.9338995870442156,0.009235132072193291,0.11783062294030604,0.41070385631146367,0.9492917098610689,-0.20357562000624943,0.18044201829779416,0.1307080473966508,0.17304825025917092,0.8725873757477155,0.10530780862929622,0.49113369071269525,-0.12433545843466247,-0.7629422396578819],[-0.3705940384521012,0.842490925967914,-0.4141549886132421,-0.1653298019575226,-0.2613589476942391,-0.9608271195905216,0.8126920661185829,-0.598502876485246,-0.7777688526129378,-0.6509054408133494,0.7810741918549002,-0.503963933627747,0.20988209659383805,0.9185391044977378,-0.20671049738110447,-0.8309122500491841,0.016968810350171903,-1.4609668662760718,0.5865284204104411,0.28896470971796717,-0.13795702103270727,-1.1422605001631387,-0.6142978181195321,0.6923047142391741,-0.8137924035187593,0.6326624208219219,-1.0692623945430215,-1.0125827472496247,0.8114044675394287,0.8113868250870652,0.41581867440687353,-1.538432325438694,0.40463934061289514,-1.0587760677474292,-0.335193477787118,0.10481705693746246,-0.39444942553195467,-0.8545135599573197,0.24420114369814738,-0.38098466227429306,0.7566603770256287,0.911790388065697,0.6463991181487684,-0.6560177487071428,0.4454473861097175,0.509879064043802,0.039320046322074274,-0.35836820274457676,-0.22594312113235132,1.1203275536463815],[-0.5093150897987141,-0.3837629268784318,-0.7506784262299708,0.5863080480685823,0.3197502171537953,0.2530492762908394,-0.6655106768273094,0.3764784042804553,-0.5413041505898104,0.6588738278001596,-1.048200225277172,0.11847592661084003,0.6681971026300086,-0.8413467398402175,-0.167370911065023,0.46643222203035695,-1.16945370203007,0.23251156006600315,-0.32504150621242406,0.39004240536997353,-1.1875457179991642,-0.2801999696412329,-0.42399561841261363,0.8901973797449347,0.382825504178217,-0.3347961658330054,0.9859417282848705,0.2384060494681074,-0.36059254939917385,0.3650928967810958,0.6015480036056049,0.17337808356818699,-0.3126260002966429,-0.07435646791998779,0.0015205198583299433,0.7637922856094155,0.43117568817925056,0.2686460124350492,-0.5676975972327778,0.025181307792036447,-1.0481970880073335,0.5447985809364849,0.34625338431716185,0.36370244143779307,0.22496396168303795,-0.38164470796720434,-0.5135372972196749,0.570519108237185,-0.6786125855154425,-1.0232749969025783],[-0.056315396219592646,-0.22347189271949622,0.9970433462904009,0.20483403314540927,0.40993071393277225,-0.5157361478603926,-0.05962821775156436,-0.675279495775578,-0.21370432403042267,0.4936350807783971,-0.5695868656056959,0.6015460601312924,-0.560207823074571,0.22179113410951162,0.17861159497152349,-0.12232725366756249,-1.2276024693455903,0.23129679130680086,0.7886690452080182,-0.04848676373649606,-0.09746974544963034,0.46527643524282586,0.6825084157303756,0.6197884827692839,-0.5807633565398668,-0.704085721532203,-0.07808187957796432,0.06700494492014704,0.20679667470176205,0.31153429747985895,-0.555695712949008,0.44052914652216646,-1.2740862610308548,-0.4504413922276548,0.43931662033366653,-0.4682311288771366,-1.2202399172720195,-0.3009129353038137,-0.9371698605837236,-0.1270349560357558,-1.2666380428261397,-0.12286681726814232,-0.32959503536050927,0.8062989982614852,0.2419945707030292,0.08346380563318728,0.9073890942697288,0.444513870764536,-0.2443201839203812,-1.8185393384701416]],[[-1.2903598009451507,-0.43146450131754127,-0.5086484557435156],[-1.3085133674109373,0.6529003358464293,-0.19768856068978619],[-0.8214862563769765,-0.8038121011395727,1.3421130432323407],[0.5452407244432246,-1.120177858040204,-0.12022749949204097],[0.9064892236135257,-1.2286015516092752,0.08536138222233415]]],"Output":[[0,0,0],[0,1,0],[0,0,1],[1,0,0],[1,0,0]],"Rate":0.1,"Errors":[-0.10240810884168844,0.07910237863171203,0.08379701440739845,0.07685771366645414,0.07093515649438902,0.06624613327820877,0.0624754613611909,0.05937133578464779,0.05676104644138428,0.054526382463662156,0.052584543987703035,0.05087595954623306,0.049356668042613454,0.047993480307074204,0.04676082985761462,0.04563866964829906,0.044611032448880955,0.04366502289353906,0.04279009707787797,0.041977537981346326],"Time":0.01,"Locale":"en"}
