{"Layers":[[[0,0,0],[0,1,1],[1,0,0]],[[0.5060065376166331,0.517317511072176,0.541472710649022,0.7244494098501668,0.6482505427922841,0.32460497816520173,0.6270236497858054,0.44653160076149806,0.2424570599408471,0.2591801673117552,0.62846151433972,0.5601402220640047,0.23838498270932879,0.5455309958037691,0.20291594857552347,0.36181757796034464,0.23684189368609893,0.49014932114504006,0.24351160562346053,0.3253528992749448,0.3716599056738469,0.5258594479171451,0.5204661448032052,0.5024336310365015,0.6145456311768924,0.5853514837889242,0.540786982271479,0.607456201799126,0.6068230548583157,0.6086725017041925,0.2413918025213064,0.1678773275141651,0.3951125463210717,0.47019069667923363,0.6436878033728174,0.48666541125580043,0.4437718821732942,0.4356195430844862,0.4495508950345352,0.4743591522589252,0.43605633106964364,0.5193088342515474,0.3632812095575898,0.48255891745253027,0.6661734210670209,0.5676654423593205,0.25414741643948613,0.7263999955195101,0.48034273581087744,0.28402356258495354],[0.7600273174636867,0.03834291177501496,0.5073084320547387,0.4554998364619083,0.7480434690840355,0.5747604710503648,0.15617039183873857,0.44345945695754513,0.09813256796356201,0.6325223348406782,0.6538558668194892,0.6184825517804677,0.3202272979016032,0.366361706622792,0.20546954845514662,0.40759920462831867,0.7808208772722658,0.599809293190219,0.916001345441004,0.9246155596431048,0.10473681386829843,0.5426237792465494,0.5380919092006491,0.6798560103832332,0.21069970037351296,0.6888040777492699,0.4093163131494744,0.5065601967963533,0.2361641139897875,0.7751633918923713,0.34791981322180265,0.3783561751318668,0.43138788392424826,0.8740394854090053,0.6051495948006059,0.4162511947403998,0.851984942510957,0.7014283625453652,0.2979791690730386,0.8436982915908215,0.05537004727849463,0.6478914161978536,0.19729639914331695,0.39980404057521707,0.10005685501981859,0.5050585260907099,0.6117779260745967,0.3724657407999758,0.15442487081835687,0.6253299921113127],[0.3111988119451284,0.8710967532011676,0.6292667143566784,0.6901342685265573,0.5626560494692614,0.5442710897147924,0.4752257615274146,0.604783432487349,0.3402165971909359,0.31415377104488407,0.6926024273753971,0.7902656294773811,0.3354054424058038,0.5624678537429142,0.4198335099259978,0.5990616714653739,0.4373019517639812,0.5302466386195007,0.7870519040073458,0.10640932774544859,0.558550406020299,0.38062212976719545,0.21122032418608208,0.6245573765741285,0.6127751022340604,0.48644229783596565,0.3481271381961801,0.42414769547710357,0.6562126392376711,0.5731844964878181,0.7020669361129774,0.18398253752413565,0.09984962584917136,0.43131981397721475,0.8363486811488077,0.15397413125282086,0.16260115066868486,0.28023137025384154,0.516784797180687,0.24177947312812215,0.5364397670180899,0.6731905432067714,0.6578261820953021,0.2662011520791504,0.4209965271585311,0.37080997501297275,0.6002934228162877,0.3109952529919234,0.6872415328955446,0.39194519170698794]],[[0.006849202914371446,0.002776440226437635],[0.002272919223906691,0.8522960998531879],[0.8083933388482978,0.001985926727800798]]],"Weights":[[[0.13864374113223255,0.897580754756885,0.27990778590056764,-0.14737784576944915,-0.2841939835411262,0.4435416429832726,-0.6453452461664677,-0.5867830997251906,-0.5447053264379339,-0.27386426532546204,-0.045724611824865445,0.6436617959668453,-0.43720312345620443,-0.29962267659464836,-0.26099611108534565,-0.04886214000740028,-0.2497622423898446,-0.5421341802873499,0.3745311846869301,-0.8641374532792826,-0.4708449207696053,-0.30613595780818936,-0.10330063008040365,0.6842619685185346,-0.3821658261764836,-0.5857439037697004,0.39601049688506645,-0.6053326106396902,0.840706746206916,0.34066027795572834,0.11245283819057204,-0.7396039383261478,-1.0654835003702086,0.20784363528023134,0.9559478868443132,-1.0872338362962362,-0.23237271164873613,-1.3122865886556874,0.3553392638534459,-0.37015084488507405,-0.396928810151208,0.13253632231111848,0.07984118135849909,-0.4908656396945163,-0.08305362427510163,0.05156020851687882,-0.36520847025125097,-0.4667885608631282,0.5830379548358218,-0.4361172815412783],[0.7478895522112705,-1.1560215040075685,0.799799879252862,-0.8217545653803177,1.011995327928582,-0.9199563032557712,-0.915545544248878,0.1999735027526016,-0.6983743258104291,-0.3656609933236663,0.991173626782603,0.44653497684447285,0.5894596971076315,0.49077741022067295,-0.5336394622055319,-0.21902424334900408,0.7783659044373382,0.4053743448527879,0.9578579459487617,0.8466120845670051,-1.1126218199203213,-0.018541418603918475,1.00240524189466,0.9472030035635551,-0.5727870791403876,0.47231468951535116,0.4342365481271375,0.053051328397490084,-0.07792353608546547,0.0953181824719071,0.31197098442867593,-0.13237258341292402,-0.694559952366974,0.9678304486940889,0.7886376248287625,-0.362105570401205,0.45627788595663255,0.39160432126230693,-0.9737975069427435,0.34535013237971773,-0.43506344749268605,-0.3313041504459767,-0.5342837348210084,-0.038344630240297106,-0.9188866372459833,-0.43743863937426986,0.1748038212984828,-0.6892443943840622,-0.5829388278975784,-0.06376565280227306],[-0.1433717454890477,-0.5000559686860488,0.1113702616074012,0.2305538507273095,0.5165230442246546,0.5925295368341552,-1.3590967472302118,0.3099540809583226,-0.38143697719074304,0.007030344740688026,0.3334369743115888,-0.2179263873691876,-0.953307825647918,-0.9658777553404702,-0.8938032127636238,0.7559042222632943,0.1640503593234311,0.15885226696832794,0.6308095766621078,0.7582110840283514,-0.37741141347679324,0.19550577663298233,-0.79903806403479,0.728977697226075,-0.7693086040698457,0.3742056081031593,-0.492644626799596,-0.7271961737867728,-0.1916549508464554,0.6205771863803992,0.18800024247989947,-0.8793340593383107,0.12255802535697455,0.9472506199882283,0.49748024699552684,-0.4182608858529387,0.5203049110448005,-0.5955471537971386,-0.43330399120809215,0.6700612429198008,-1.2168599983447412,0.18497937227442499,-0.011140225880027539,-0.9292362329883757,-1.2429909204582985,-0.13068767867685718,0.09737365166335439,0.9164730177687958,-0.0014258126221287277,0.29274134877212643]],[[-0.6631164061240898,-0.6535731737669812],[0.9714954176164419,-1.3324919734758849],[-0.7247556962868865,-0.5198166693545424],[-0.5872115450292281,-0.6089401165789027],[-0.8217440270944084,0.8590261905576687],[0.197972204605122,-0.5539337841573504],[0.6119927969856699,-0.6647350406436012],[0.44953513359447417,-0.8308775448991458],[0.8076126710336694,0.1447244905207905],[0.5806937317500158,0.7544708060783987],[-0.9136429028243322,0.7107977995726035],[0.48384047455955076,-0.16701505044761664],[0.5540592516159492,0.3937168461736917],[-0.622874874119951,-0.4266962177483944],[0.7929720707354762,0.7611970094074645],[-0.047006097204926905,-0.5261208533022],[0.669118916992343,0.1113137734550287],[-1.1297279669811477,-0.43085874297470594],[0.8322306883337096,0.6405701295644214],[-0.5014114096120253,0.6797474952382564],[0.7198935667445067,-0.3347423465949598],[-0.2319156116290587,-0.09596456028338139],[-0.3790251584726518,0.8441797965094172],[-0.23349554242423942,0.4288810688793442],[-0.18798007145117,-1.1820245235754356],[-0.8649530617087888,0.7802513965429535],[-0.5922219514850806,-0.32867194163698654],[-0.5675519920145413,-0.9221419061199877],[0.6128297967954027,-1.2551127753317701],[-0.8553721976167302,-0.799939157253251],[0.809495442842531,-0.5776143408878271],[0.7334505746513796,0.9185941334060964],[-1.0168510467851002,-0.3817128087201454],[-0.3774106664199017,-0.4915690019189444],[0.424708762967838,0.18455371996943093],[-0.8926227185916945,-0.5516109442598532],[-0.8918082419209936,0.7117266604449067],[-1.34441717521223,0.7457286945906575],[-0.6337450635664311,-1.143280027651092],[0.2796569770013192,0.9788472161733771],[0.8492379403244992,-1.162698203666737],[0.1862788677535749,-0.9624079776831573],[-0.085831973447981,-0.31505961774869534],[-0.6489003026612884,-0.9759484336999567],[-0.10948899853969488,-0.8379165326557152],[0.22606284338739185,0.805806928152379],[0.7762763783380786,-0.4797348610964913],[-0.09860946707036279,0.27062775284201],[-0.06729087726413469,-0.6596019013382356],[-0.2549089019360182,1.0303297499721005]]],"Biases":[[[0.024027306336390383,0.06929776267156396,0.16627286064015345,0.966640689605731,0.611358108863989,-0.7326887459628274,0.5194692454960145,-0.2146944857114603,-1.1392556000341494,-1.0502340084112247,0.5256223379009521,0.24173115931620992,-1.1615542601479498,0.18262991086012548,-1.3681682861094966,-0.5674840139121239,-1.1700724232148803,-0.03940781457664861,-1.1335225888183988,-0.7292793032665718,-0.5251023673083054,0.1035301666256965,0.08191034529570033,0.009734601018170162,0.46646036647102845,0.34478128131932684,0.16351125987999524,0.43663195804183,0.4339774882844542,0.4417355580797414,-1.1450640852441176,-1.6007463535300321,-0.4258717620365607,-0.11937878671539308,0.5914065278224226,-0.05335100592258207,-0.22586784245450534,-0.25895933827679357,-0.2024854261245493,-0.10265344058395855,-0.2571829340223957,0.07727376571001345,-0.5611508824957689,-0.06979264647400082,0.6909283952555109,0.27233250775185225,-1.0766134931618834,0.9764336189945534,-0.07866960489910736,-0.9245900562128658],[0.5483114758450216,-1.5660107764056255,-0.8819343304192301,0.4127278296047085,-0.4403138583855809,0.6287275406508566,0.5876393698788922,-0.7370612239319017,-1.138336936253524,0.9016836388329357,-0.6885789192544152,0.2545038059087803,-0.38887930254358294,-0.07275681648803023,0.07498920204738947,-0.9107790539399196,0.3280402017828721,-0.15955605232641326,0.8005495293240097,0.9019539789260578,-0.6556338354138591,-0.006054426508852819,-0.05070373097054294,-0.9230705366191045,0.021382725642062814,-0.05198611335614064,-0.30838433969823287,0.7003871384679626,-0.9042475086626246,0.5218045143129165,-1.1281667356823497,0.5151753570787215,0.2958110674913334,0.02207600218930887,-0.8591491523789672,0.44218460547536836,0.7736720481827016,1.058051710959085,0.5501620025027968,0.6705954132800346,-1.1848310358461045,0.7561082881473218,-0.857854408162672,0.5612991907995964,-0.03471545675748719,0.5883611128085626,0.18261434643935567,-0.7488818266518015,-1.1159446765185435,0.2832581422102244],[-0.933164444422698,1.0131102006838486,0.2491645126604341,0.9481249371230867,0.5361425427547678,-0.26599233131282574,0.5461670765652653,1.012219644002447,-0.11762381181726055,-0.5069065984919826,0.8580388139145487,0.6828655050429607,-0.24663396756629807,0.5508064798812687,-0.06246077536524055,0.450419068893303,-0.002356993849953381,0.6632686405273097,0.9327145580516849,-1.2638171161854979,0.7061259440999154,-0.18077248375031926,-1.214284627776301,-0.17532442621910946,0.8411581588472677,0.5314997982674894,-1.02329228986549,0.29956313154842223,-0.1942451935360977,-0.045804473440158915,0.7447070684316894,-0.7499909681568397,-1.1334130186613804,-0.4843120054343629,0.6753596621101448,-0.6165314911320293,-1.406627494066684,0.36897236015161616,-0.28817483795175686,-0.7727973883593645,0.5429467666237885,0.5901147922598143,0.5737807066806984,-0.5231170683852784,-0.2356302666602478,-0.5803037914306488,0.7718963230717719,-0.32868195146255114,0.20421662980889357,-0.0030257286396883354]],[[-1.1046477181335048,-0.9872768609831611],[-1.3480522195815683,1.1708071166103629],[1.2399999611239187,-0.009007161151399592]]],"Output":[[0,0],[0,1],[1,0]],"Rate":0.1,"Errors":[-0.27259085902018126,-0.26682049430904414,-0.268889688480157,-0.26916463335536117,-0.2664210178809934,-0.2562908098674103,-0.18655626902122543,0.08431018488856395,0.08334370933738328,0.07876680533310886,0.07459605706296994,0.07107371713686161,0.06809238320431443,0.0655345349298328,0.06330893775696923,0.061348049861521224,0.059601711462116964,0.058032089194038496,0.05661012887655643,0.05531312481187032],"Time":0,"Locale":"en"}
