{"Layers":[[[0,0],[1,1]],[[0.4338746249697259,0.5891147055151716,0.5580236184210295,0.5475494437223717,0.6246338559667673,0.6487367746121193,0.19459627990457307,0.632907127739156,0.5054279774829988,0.4595212159185394,0.5782472671027415,0.43363212994996464,0.31054623562648515,0.27175675331854593,0.276318885429737,0.7104536053105872,0.5343024149488954,0.5405214588529856,0.636198526936159,0.6668956447512986,0.5030634447942098,0.5522296053581123,0.28455460074940764,0.6825481696920223,0.3576561468013643,0.5761685869852101,0.39191217279858087,0.2818738517526676,0.5633926600826115,0.6415368188172327,0.6235613137412889,0.2501699688288612,0.5154635902381396,0.7215440871218977,0.6413786491279502,0.37401401224548175,0.6052713526282941,0.26109448714503747,0.3885893957879435,0.648333096083652,0.4046960415244142,0.5347674644460071,0.5405418552600982,0.25347519010819036,0.25500081415281056,0.41707141768142636,0.5389043936025056,0.7145921634778017,0.5731884503220529,0.5425471656521337],[0.7097286612244887,0.588787174302443,0.7303259585045839,0.5375627132914116,0.7961904404982422,0.3240497168636857,0.45558723997628614,0.24170968931747322,0.021176864826666975,0.3481275198038532,0.7885019826029457,0.8091393117264563,0.24223117279455578,0.5627241038593415,0.1295242098164719,0.10996408468394017,0.4231906918727812,0.35201768386208054,0.6873268866671587,0.4996888434553016,0.07745006077393699,0.43834807874413706,0.7556922288193503,0.8341003635554302,0.454671798143884,0.5551838532111161,0.7196469028625068,0.5511121134575258,0.8070307362215494,0.7021557256646133,0.21054703057202775,0.1767355173189779,0.11147469496542733,0.7156320454581648,0.9157402793091388,0.2528319761713242,0.6285287634747281,0.41778668237934546,0.38247005365241854,0.5693877186462246,0.2537222770976237,0.5458969104327434,0.08825072673252791,0.4395011592363582,0.505794752287909,0.5389604706304867,0.2750399310465447,0.30425621903723127,0.3394489509037553,0.23491311700665513]],[[0.00417030388802263],[0.8526702127281874]]],"Weights":[[[0.24269870765484555,0.8072016437072661,0.2941929796573601,-0.06980861249711375,-0.16234948420013806,0.5495751637919682,-0.64207372967495,-0.8886368457164693,-1.3964738190999155,-0.14224769678795943,0.010475130434872094,0.6357354763255156,-0.6941026683682535,-0.2421232147950464,-0.3994161994665024,-0.45864986492064397,-0.37463889090239594,-0.47783257026933607,0.40894328925296686,-0.41568835235030427,-0.8305521891390938,-0.2896054559264985,0.13874054774990535,0.7098273606892979,-0.3578710639917044,-0.4259298455439123,0.49406301387649465,-0.4682012374452466,0.720151738129569,0.42254752238881366,-0.2545496065109277,-0.7647939268050412,-0.6332721287810548,0.21391933296264468,0.9470678594270396,-0.7017606045910825,0.2580730604085964,-0.6301541799104349,0.5616792788933003,-0.3212368809947889,-0.8117969715349092,0.19870850426438252,-0.3231884133937466,-0.2874855447209924,-0.10485318060175754,0.13341471768207838,-0.4423623816021018,-0.650204049624937,0.36764250221752764,-0.2591822364404733],[0.7944643771788414,-0.4795920111032176,0.7537963318812865,-0.7503277500728407,0.9422092588298556,-0.6754889840425647,-0.32876893409632685,0.16048126960308917,-1.1073826798345794,-0.12102652933748391,0.8457427304676097,0.4921534743289684,0.47947967177231937,0.45702536119519843,-0.6696827152193451,-0.5397153911118746,0.8532767218604591,0.30127069108351995,1.008632648565909,0.991630060307621,-1.0552513917259643,-0.025064294230549546,0.8513676027566893,0.8947353666270886,-0.24819162584297455,0.3615826903548625,0.4107313333732613,0.2461926303578847,0.2884606333123282,0.13263928892109422,0.2094567963722661,-0.013793521865420131,-0.6886264502133658,0.9713419125521073,0.7892681124983152,-0.21649991029706292,0.5107513954278198,0.5406840824804743,-0.6513288807291012,0.41486835239164016,0.08712718682708868,-0.14410551847344416,-0.9378544657845475,0.22606299291560217,-0.576665380943308,-0.45007530740869467,0.30675295980450384,-0.9608601808095836,-0.6469067402104428,-0.162147508688542]],[[0.6518464184323134],[-0.8666012836146714],[-0.8439794268911974],[0.33428686922709033],[-0.47084176999275534],[0.3826712843730188],[1.0058633971000515],[-0.846209180590889],[-1.2723287803557317],[0.7040447445807134],[-0.7503857167602024],[0.4520836482569176],[-0.42389242435034175],[0.03769663253899236],[-0.14322440433896844],[-1.2308056072084692],[0.19056115097333143],[-0.3652103920365474],[0.7316010594541493],[0.6755219002362112],[-0.6540586335925945],[-0.13831783805007872],[0.04977127869498787],[-0.9507796026828875],[0.28194172078256396],[-0.2240577161962261],[-0.1668942843509362],[0.8514841944453778],[-0.4464235662353902],[0.47263433758498796],[-1.1885009039305894],[0.3467295443323522],[-0.06398787647908233],[-0.07225248500130009],[-0.7666042385531617],[0.29662760721946185],[0.6728290462944458],[0.940505164133553],[0.5915037837809123],[0.5108603605526189],[-0.6033767430347715],[0.7274578476345243],[-1.1307238761002822],[0.6970868983522013],[0.3559687494401993],[0.4952598169338066],[0.024844893388265267],[-1.0932730584268344],[-1.1227718485180014],[-0.0905899837031174]]],"Biases":[[[-0.26605995451994935,0.36030682419773497,0.23314484309667635,0.1907742765067687,0.5092637139113907,0.6134911760289958,-1.4204166144049735,0.5447088197761591,0.02171276292123178,-0.16227027143705502,0.31558237364487457,-0.2670472663456743,-0.7975668409411819,-0.9857277455338797,-0.9627952651019208,0.8975881045894665,0.13742553444775635,0.16244209788333877,0.5589023487230741,0.6941777590168982,0.012253932510917158,0.2096833224530963,-0.9219801313366947,0.7655070116145613,-0.5855517161462578,0.3070645382603448,-0.4392815584632754,-0.9351856109097222,0.25494257194772346,0.5820406249449762,0.5046919162068393,-1.0977059935746896,0.06187409331413786,0.952133736376404,0.5813528998656257,-0.5150347244611405,0.4274783140674642,-1.0402876931391367,-0.4532455051283947,0.6117201695610849,-0.3859358591098539,0.1392946494637927,0.16252422317854184,-1.0801629025331485,-1.0721163876469488,-0.33480720597788405,0.15593276717186,0.9177928165259768,0.29487196611542466,0.17060123785030742],[-0.14309649161436114,0.031344247245728804,-0.05171233451637955,0.9706708402039532,0.5827926034789366,-0.6093087563007465,0.7927221786821018,-0.41517335672427946,-1.3295851645813008,-0.3640058852801177,0.4597014354624085,0.3165383728078819,-0.9258628355615381,0.03732297803003735,-0.8360732206872916,-1.0927427505616853,-0.7883266686557762,-0.4336201143027186,-0.6299242196576759,-0.5771863342967806,-0.5917045766981442,0.06680074443864845,0.1390972502988515,0.010408002015688091,0.4242507070954898,0.2859854376142262,0.03791646187300084,0.42717370757564826,0.4222184619297896,0.30239761897190387,-1.276538400398208,-0.7600357018825441,-0.7538669346587,-0.2623641277996968,0.6494928729753668,-0.16530443415568732,-0.24291409950480794,-0.24239583524249633,-0.38942760250298286,0.18572202826167913,-0.3541877573566593,0.12950292159974863,-1.0741402227268457,-0.18176426773924217,0.7046986085557037,0.47281903327229824,-0.8335908633035515,0.7839529408858803,-0.3864866013802102,-0.7594439238714974]],[[-1.6003938439289542],[1.6024304001079943]]],"Output":[[0],[1]],"Rate":0.1,"Errors":[0.12259271358711823,0.14893000827556416,0.13735695975586876,0.126269581781676,0.11752700656567101,0.11058098763419139,0.10492383744331818,0.10020724208174596,0.09619643493587197,0.09272963572352047,0.08969213450388927,0.08700033352562438,0.0845917875544473,0.08241882721371711,0.08044436260762504,0.07863904812358401,0.07697931992232258,0.07544600732327729,0.07402333058458042,0.0726981645044087],"Time":0,"Locale":"en"}
