{"Layers":[[[0,0,0,0,0,0,0,0,0,0,0],[0,0,0,1,0,1,0,0,1,0,0],[1,0,1,0,1,0,0,0,1,1,0],[0,1,0,0,0,0,1,1,1,0,1]],[[0.3387647639095916,0.6182566608776526,0.6059354197163228,0.32783745649429025,0.5367783950028993,0.3616708533605929,0.356839876750112,0.5796233050684129,0.39894935283482047,0.30136579790547724,0.47647493486696485,0.3699564348132625,0.638003292013731,0.7025251396780444,0.4026687446007982,0.36789680026841215,0.5234454442894595,0.36637027975963343,0.3616108401531614,0.40308670468551444,0.3495133445014527,0.5829461523652212,0.6621923952043689,0.36400277675433584,0.7348686271585552,0.5802278820755513,0.399802862221235,0.3597039378302382,0.5841355131475724,0.34398858548067585,0.23271946959568998,0.5533128226503724,0.2887330531234813,0.38095190303208787,0.4192497180978775,0.6886145602188942,0.3276343187047056,0.6203947764865303,0.5134702268575854,0.6942540650738617,0.22639211514331226,0.6429135590295899,0.26587791272939276,0.37585383081415186,0.7011838116550699,0.3300704454607953,0.5154534439559756,0.6446456734644074,0.5732929026846437,0.48384189897409285],[0.14114259833965195,0.5783576149503545,0.5070671850480258,0.9610703415567919,0.9391002263089397,0.2256450720917517,0.5415158803858866,0.7195564274990727,0.25676266790572905,0.4665924820387684,0.4013589399315962,0.8859217134862682,0.3183931386702988,0.6763622609125565,0.3764396083289365,0.5850586108197756,0.12192769765307669,0.36793061682780404,0.5500587063571036,0.19563822778710996,0.10222933909035899,0.4278027529366127,0.08006071551006659,0.7011239521495864,0.6133393858274252,0.4893894142853039,0.6398139931886493,0.7369217128369151,0.36762951045093734,0.6182542075435273,0.7648052520480643,0.08817505962426013,0.24356457986371124,0.34981669798064796,0.7862977485106124,0.733713917933188,0.38775760879348253,0.5904437197122022,0.09741864900366763,0.5832078024288281,0.6681531203995361,0.8304802760410245,0.6928701245029456,0.46079362184541334,0.5866983064549475,0.12182637586500084,0.17301951655373535,0.6466642023604205,0.11056937649661301,0.3066568987135612],[0.5136940360580423,0.2908909094884557,0.2715633709999933,0.7408770318999801,0.6267196164764739,0.8798776385468102,0.25516438836528843,0.07347710504197597,0.3290568826958158,0.8213410490005604,0.03602807345457218,0.8336006376109715,0.10882235587920482,0.03255192314474876,0.3656174459077238,0.32585633830736344,0.07752755545384608,0.46382664162260767,0.8870579989811462,0.630955877465143,0.02857619191781684,0.4213903809158426,0.09747894840695513,0.8130420345049343,0.26057813066257735,0.14162760484501952,0.7191729186897355,0.597741392882025,0.3269991828329478,0.8018823857620498,0.5534538686981119,0.3325301282243071,0.4008520500261409,0.7854886887041593,0.5707315335979775,0.48088104015295974,0.8350993528653522,0.08184187097710498,0.12933840949495556,0.747147921599266,0.14406108796361003,0.6574237542752198,0.4987502466107735,0.7064040434480479,0.6089027679741497,0.24905019388288613,0.6862951395800096,0.5036070441470085,0.09579530075996463,0.08152735085779433],[0.20700815597296862,0.503615540985187,0.836600285385686,0.531988577313832,0.7610886834994816,0.39015149795045956,0.6210254934046312,0.15041505341789893,0.4649020521997758,0.4487695918630976,0.1301598264097739,0.5787515940827785,0.903399323714711,0.6615868505975522,0.3703243611989432,0.06378295466248325,0.5897926853953503,0.2862653991458584,0.8983194961268726,0.7095027427865678,0.03002040337726432,0.20931339826906248,0.05925211355533187,0.8980282255132145,0.11678264842570332,0.8752874728069224,0.5909110262031495,0.17036289220639264,0.8278955999402723,0.954537948591258,0.9104866802953256,0.03701378106583474,0.6882153183834601,0.48683836771312694,0.5741199405676852,0.6366037796767465,0.8677487470270323,0.35724279937784886,0.03520303128843589,0.6032625655208028,0.8099357579110922,0.790121143018453,0.7345536886278374,0.06854867176801545,0.8438231795541733,0.254800404139493,0.31899873024969666,0.23169490317313324,0.021275589722890155,0.36258587835876227]],[[0.004914977800925465],[0.8801863275664327],[0.909127935773138],[0.8896118377460674]]],"Weights":[[[0.21399791064011728,0.8997361651769736,0.2599495988397945,-0.11292826064713092,-0.13808270166276235,0.3744939512028762,-0.7944075625881694,-0.8001406705388395,-0.7228787635583572,-0.39765139072068445,-0.07539095751035614,0.6314812010106154,-0.5269504728247051,-0.3901869967630922,-0.32816357229717813,-0.07932104092341406,-0.5406259211433979,-0.42271495738257836,0.3569097692300786,-0.5776205670578536,-0.6984651375744504,-0.2876989334882576,0.041539763851856225,0.7235133365530222,-0.48203897431175663,-0.29072988553898566,0.519531532205648,-0.5810700953618143,0.6864857361421127,0.38879467592448136,0.07207065693604955,-0.9938878581475541,-0.6204240684172174,0.21529724336271996,0.9730703454707371,-0.8219423028043535,0.1907519136153874,-0.9578628265528444,0.3336749635317543,-0.3882086578289125,-0.5576206996015127,0.07426069026911948,0.09011125884063086,-0.45113072739340637,-0.13849471731588933,0.029708454248167825,-0.49658117980321476,-0.4352759229895618,0.4646759750801195,-0.33810902532129206],[0.8015573141893955,-0.37432882534840206,0.7788687436744308,-0.6604593223664104,0.9693245184977222,-0.782021475738118,-0.4855617657967649,0.15565680101437393,-0.2992368923148519,-0.36257864501973647,0.6763087301574958,0.5827396404989801,0.6038249800855725,0.4207155599650573,-0.5132814328086358,-0.2366793991028244,0.7492768575447434,0.3229152873185159,0.954855413515536,0.8197375529358517,-1.0886793338853769,-0.057109900514823134,0.583739754435341,0.9085464677155247,-0.545964475602521,0.38999264498365965,0.5368522066013204,0.20132134214467237,0.29087944104609587,0.10279376108576449,0.5143148754524554,-0.5246424840661371,-0.6782226554992434,0.9858436632878079,0.8684801213967432,-0.3252642011917114,0.4443457078548035,0.2055021907321753,-0.9996665192789456,0.4172968853051494,0.26066783839149954,-0.26903175655792505,-0.5253579534109708,-0.17573012261000873,-0.6182776842128697,-0.6017816339546644,0.21163899268190692,-0.7352039141920064,-0.8113107238349732,-0.2478297239216702],[-0.12549771753620656,0.2689080456880087,0.031123333418260193,0.2588610178847691,0.47100375766330216,0.6619156434582697,-0.9246539699908791,0.3589580229864407,-0.1168502756733361,-0.0037388852058546076,0.10213999005136808,-0.17656216519959284,-0.8961356554396819,-1.1476935863339912,-0.9585938386081126,0.8145418984976538,0.07297414650555072,0.10986622608581822,0.6295507592563679,0.7412968450614179,-0.18795393371779476,0.19088942344459245,-1.0472764870708107,0.6901960361533328,-0.5688810610924852,0.39867356894759726,-0.49068132322431796,-0.6469237297429459,0.14106321656388235,0.6241454463652537,0.41210631787046675,-0.9898489291333203,0.1413395878744188,0.952139994246322,0.5241132207087774,-0.39283692396206704,0.5074572737227793,-0.7741760392213809,-0.33883968035599643,0.6726076860975999,-0.44049309209156906,0.24773019025169432,-0.0014112846091879217,-0.8284737925048908,-0.9344112008697553,-0.2470306101451929,0.1751039919682624,0.8597853579786492,0.03163974792759778,0.11543270400503797],[-0.16180119626898987,0.11228934271229361,-0.05987954442806935,0.9162400692107507,0.5948598358425007,-0.7425330419218982,0.6031351952032983,-0.22622664201336812,-0.6239357161966574,-0.6121892514694215,0.43055869861505636,0.3106561098090179,-0.7701123421593836,0.020225503962514484,-0.7598114645575391,-0.705637642040447,-0.9770134267724375,-0.3865883255292665,-0.7036416042095782,-0.819308061760201,-0.47241696735547944,0.06262499174941613,-0.01630604507492266,0.021920989666405415,0.3417291243856728,0.36205928811922644,0.07883337835473776,0.31155602231044305,0.37993698386461383,0.2531198509627047,-0.9649084980886862,-1.104323499959785,-0.6835978454546616,-0.25130525936908443,0.6599606995519862,-0.2986782991068981,-0.285952864508225,-0.5139829187635516,-0.6520204982624601,0.13883673335430838,-0.17502195030985934,0.010437264335871594,-0.6605689682884229,-0.3770844899623072,0.677295450282174,0.3391737008341799,-0.9230087251134796,0.9972525900979702,-0.3361235860730513,-0.8232471480632995],[0.5661855037978641,-0.7970467620315669,-0.9621812586083722,0.44103499676216795,-0.48583314494693364,0.698113647274971,1.0220821471182238,-0.6880572819037829,-0.8737502347361162,0.8909144088863932,-0.9198759035146368,0.29586802807837564,-0.3317071323353465,-0.2545726474815511,0.010198576202900735,-0.8521413777055602,0.23696398896499116,-0.2085420932089229,0.7992907119182698,0.8850397399591243,-0.4661763556548613,-0.010670779697242692,-0.29894215400656327,-0.9618521976918467,0.22181026861942357,-0.027518152511702546,-0.3064210361229552,0.7806595825117896,-0.5715293412522883,0.5253727742977711,-0.9040606602917836,0.40466048728371184,0.3145926300087775,0.02696537644740271,-0.832516178665717,0.46760856736624,0.7608244108606804,0.8794228255348421,0.6446263133548927,0.6731418564578336,-0.4084641295929325,0.8188591061245913,-0.8481254668918322,0.6620616312830813,0.27386426283105564,0.4720181813402267,0.26034468674426375,-0.805569486441948,-1.082879115968816,0.10594949744313603],[-0.8478141825547127,1.0036761851007958,0.2552824965055367,0.9712633994022194,0.67005427445932,-0.29318309612528215,0.3598516095779791,0.8993126127220781,-0.26374285609459835,-0.623473396143784,0.8850958193269348,0.6690569224027673,-0.3477830190761929,0.5912084676133476,-0.12461910761664442,0.42773645250129916,-0.3159204004791663,0.7746020393187766,0.893409278065819,-1.0574897427199397,0.46570628507309175,-0.1684177345578606,-1.1276467453197663,-0.1382460463976298,0.78293133832223,0.7673877069982776,-0.884322856392325,0.3210768194776597,-0.3570816796786206,-0.013194997016272922,0.6893345260397112,-1.119468754712974,-0.6309325578681885,-0.46717743932133726,0.6769474612694906,-0.36443212437808653,-0.9592204870127702,0.7795176853758148,-0.3444277186713789,-0.7707687193764508,0.3072444122868861,0.537221316949201,0.584322366366874,-0.5150571956348198,-0.28483298126043394,-0.6320946147035682,0.6053245499109923,-0.29879779101227033,0.03918419249775873,0.11010609226931459],[-0.13236695534121226,-0.7288523288222171,0.8133726985967216,-0.7477973989531471,-0.526674045153605,-0.28225554751502735,-0.2286103445160188,-0.5079223282222434,-0.17466280970042575,0.9518687862908372,0.15366897404230373,-0.48507202273835287,0.9279936971851909,-0.43534264454029203,0.7367508961931634,-0.8252252372159572,0.8508135208101107,0.23933795362853577,0.9035142108628644,0.5950614869603021,-0.9071721910780226,0.842120847150162,0.3922482183740472,-0.011983541553919069,0.46874829009491303,0.4298028056104983,-0.337972671415473,-0.11097210570189306,0.811423084898452,0.8880579404608242,-0.00006723581953663684,-0.7549724354029191,1.0122656234420888,-0.08091684283652278,-0.8342219720397749,-0.33870817919705976,0.9058624737101982,0.4195487906619886,-0.09912553638353909,0.4175754675758153,0.7455611986306632,-0.09064853602978945,0.15809875796969863,-0.28323426017949827,0.108461636951389,0.8217834480510069,-0.024826508808908947,0.4963196863864508,-0.39238328261698135,-0.9361725828928564],[-0.43454760599403935,0.8823825415280564,-0.266881411670032,-0.03652975910249732,-0.1530052792068095,-0.7360802741647251,0.8731146491490467,-1.1976105041745015,-0.23441798270710365,-0.7670102114071856,0.5215126989065363,-0.3868475662066152,0.9799790788442942,0.8130754501116951,-0.5372392015396669,-0.485619312929935,0.022195841983307575,-0.6894124617550313,0.6241782519152175,0.3855872826949157,-0.7559387697503511,-0.5426560549946152,-0.60004511891493,0.5011368501324823,-1.2321128376433945,0.6903013948448217,-0.42581500660535393,-0.8996667540306911,0.8917753341978025,0.7980065923742437,0.9279162627570323,-1.246248331747684,0.4858003347721569,-0.883897598876261,-0.10913915967853505,-0.018037394241166533,-0.30301305039172505,-1.0021374968642904,0.02442487592604863,-0.40160436288820556,0.6809229148188647,0.9125775667588678,0.8744120907911338,-0.787653426984141,0.4478563133633225,0.43350160897222667,-0.14424949960292327,-0.3107549961463369,-0.42898720694346204,0.9035133073821057],[-0.215515215314097,-0.44339677984995324,-1.0263828629154437,0.7360414790099803,0.5409962023453483,0.4278871553873934,-0.37675924835080393,-0.01739689148269281,0.19783661096157737,0.8611555702580787,-1.0449222414312722,0.14660033501257325,0.6105338203284175,-0.7154189171137394,0.1082059588623028,0.2797595452058811,-1.1168562985339023,-0.04377079104788582,-0.49444274063450905,0.10967344704443126,-1.294690757672942,-0.7872091300822454,-1.2096428114338533,0.8815737171719463,-0.07380784195300666,-0.32901724383864217,1.094267628401959,0.15650371672787736,-0.428721345501903,0.31778671170097744,0.711469437150791,-0.08072129758429829,0.2481765085055889,-0.12787654950299443,0.031515191368739134,0.9617658974214688,0.5167472318900682,-0.26928488573195464,-0.809210573153945,0.5554958577149668,-0.02070121424880091,0.4662683881396992,0.3185652782754516,0.0707822653192101,0.3174520396804584,-0.6751623903996022,-0.3133579005614141,0.5507278294098404,-1.3929807603816156,-0.6035162894834121],[0.027355691024108227,-0.5841589401643607,0.920042226147464,0.2835499320295506,0.4672802908158957,-0.17452130850114778,0.10236553656031869,-0.8507993492446019,0.17438746631515242,0.6905949211245568,-0.5192475069082437,0.5608089139104142,-0.6719206804154615,0.15725767145300656,0.2984165483358679,-0.22917024116516174,-1.1038711354545168,0.1228145568286939,0.7743244606670049,-0.10976100305990769,0.08751842617716177,0.27622890707129366,0.5598700184359892,0.6192907798058669,-0.9363977996889761,-0.7219456025023355,-0.3145784945012187,-0.012965944494793113,0.19387506543230074,0.2506738163603437,-0.3262817387073799,0.5359350186747487,-0.7687068529050795,-0.49055819562600883,0.3977234888704386,-0.14041481820108012,-0.9546030174232678,-0.642110544205714,-0.8938827413014483,0.13643464843675857,-0.4470027906274604,-0.2727918865160834,-0.45411013265780314,0.7924535616662135,0.33886098787652735,-0.14120315846919532,0.9338269507994856,0.33578876699173693,-0.3837337287783236,-1.0484660551884646],[-0.5471783627533902,0.5963567618979007,0.5230078246226557,0.7611146848207663,-0.40869024681296645,0.28929596197161256,-0.02573274333139628,-0.7534806422468258,-0.004154286098548857,-0.49189433136635935,-1.1743272285091886,-0.594006862241509,-0.9893065022367237,0.7786597000697845,-0.40344942698589986,-0.4388674256555777,0.5416061754746669,-0.18180812936375138,-0.12281385585772088,-0.8254680139931785,0.29768746854144496,0.0007642914328387251,-1.0658580816001857,0.6952296383641287,-0.9141555211555399,0.13912340728107972,-0.642567271376249,-0.375528857144812,0.9885666784606408,0.85786334946737,-0.7907547729290422,-0.9105068621736637,-0.31034461108207434,-0.04122749400783487,-0.6376695617917254,-0.21847532747618315,0.37765797655614103,0.49222464515379594,-1.1050757870162264,-0.7290755912247318,-0.3151519980850189,0.0377974118413397,-0.30184293613668023,-0.8857503321885493,0.836632956989275,-0.3432609172505645,-0.7276468063593071,-0.8066740622101407,-0.8476750434489913,-0.27950215015120616]],[[0.03023816059656453],[0.08335602636224068],[-0.9498325114595133],[0.9979831963894155],[0.5781267563291638],[0.29658428289784405],[0.7174985684399993],[-1.0141407684384265],[0.7550244023868661],[0.17293586918589962],[-0.8515161004187547],[0.9246599042990381],[0.23102711894457736],[-1.1428878815255905],[0.37751573677213357],[-0.30833438135912145],[-0.9264307837182438],[-0.22623463002569275],[-0.42413999192824137],[-0.70863314747931],[-0.8389771218701763],[-0.3474672248063505],[-1.1650184254075147],[-0.05961900254190729],[-1.1794089746356804],[0.7999714865266173],[0.9550294589716481],[0.18587996480915936],[-0.7021708211194027],[-0.5254045629851296],[0.9051280634637495],[-1.1838200220559112],[0.8716065589876373],[0.12059696144217127],[0.6874980576983734],[0.29670581102211646],[0.3946212555725877],[-0.7228904229876771],[-0.6760455108132728],[0.6029729099129043],[0.8785414934652147],[-0.4112129855276313],[0.21631850307820366],[-0.7604225428264161],[0.48981667419271757],[-0.4282528133748405],[-0.35471956862688764],[-0.15937984417672146],[-1.2602082293792942],[-0.5698724809214396]]],"Biases":[[[-0.6688037009086404,0.48215518442935146,0.4302586070499495,-0.7179822654063347,0.14737976900477462,-0.5681195007840012,-0.5891065618550169,0.32122721651712505,-0.409844728892222,-0.8408024868925615,-0.0941697899516715,-0.5324037131268199,0.5667083254037701,0.8593514682905473,-0.39435757593056187,-0.5412502067441967,0.09385060237588048,-0.5478202310282418,-0.5683794594332917,-0.39262018195737786,-0.621179040882831,0.3348794745940911,0.6730796240732526,-0.5580327013110327,1.0194662949614297,0.3237089388464507,-0.406286583042437,-0.576649368346967,0.339773544537591,-0.6455697138939535,-1.1930187496660367,0.21406500183408825,-0.9015452424159,-0.48550984234804784,-0.3258541287540022,0.7936501943289846,-0.7189042566682441,0.4912241844632183,0.053893948482683654,0.8200835024541,-1.2287966178908476,0.5880323973027224,-1.015638117495282,-0.5071842664552141,0.8529414364983097,-0.7078664616062217,0.061833469354540434,0.5955854277662792,0.2952989369905042,-0.06465491754745688],[-0.5807015939491851,-0.3565338855996553,0.8592505337693429,0.5827462669076658,0.92978243951389,-0.6252380617011694,-0.41978081933714484,0.28657333284401193,-0.373021269417801,0.24067761852988703,-0.6705383240941787,0.9234302834682181,-0.2538045967264153,0.8410889659395837,0.2715366252759517,0.3417163966163594,0.4354894134899487,-0.8853477151990186,0.5055829624571341,0.353342401111407,-0.8712944951680432,0.6021803351598277,-0.08792678021968889,0.08740710110493155,-0.5894815329796055,-0.842878466994618,0.2857787645026826,0.24089344622478912,-0.1365337327518374,-0.07556677601222328,0.7433118781906303,-0.03161031572429268,-0.06688114572108855,0.22651421919135842,-0.06567151461204851,0.7148924937771293,0.2716782762685775,0.3695501102175478,-0.42058237513411534,0.4123919171372848,0.5883224651904506,0.5751079242572477,0.5712531893931667,0.6642112996326489,-0.3595815984612241,-1.007164136952669,-0.9333346191785101,-0.6447743487617136,-0.3950181896240125,0.5008619018021754],[-0.41173632623174,-0.2351027934318085,-0.20925614758174765,-0.5560272317031981,-0.3371949819655907,0.003382859836692366,-0.09988244354606325,-0.5370287248040335,0.6288014678845232,-0.5158148810915317,-0.8294671002940607,0.1531674264917629,-0.28664687288357443,-1.0412108301941136,0.3188717144237397,-0.6606554158208799,-0.02500885798855919,0.2974003853589574,-0.004597014089179599,-0.5123087367861631,-0.9664211594886072,0.30139217020797726,-0.2711039046602324,-0.48282266896111864,0.7963495272142515,-0.8312996051386651,0.4382444100058693,0.6998594943231103,-0.742962203331306,-0.7086723443485953,0.24933167843324966,0.4270987927594143,0.28310603904184606,0.7219757182508773,-0.8090696564995319,-0.15069356469774495,0.6010297366100367,-0.653569176663397,-0.8431893547282376,-0.566012851854753,0.09232034859938124,-0.682491942202866,0.889971323075293,0.6322899102401026,0.5854310199330636,-0.542014832033683,0.2235186097547057,-0.4910281180573323,0.11843574131319295,-0.6530644006277609],[-0.8150039180842328,0.08230104661178227,0.8111619719473668,0.07575963141897486,0.7367063144770363,0.6364987310104365,0.7374526482180002,0.5894041287444934,0.37401229268898034,-0.39718445649304324,-1.0317872901791476,1.0542371379396238,0.10255385833654214,-0.19131536468476373,0.07818765201699403,-0.9797295195868211,-0.6839276800936679,-0.560853694968193,0.31339892920853885,-0.19162152788893672,0.27339581004448016,-0.7849790950382103,-0.8653156924619155,-0.79899768676497,0.27403556603175244,0.628338057583674,0.14296790035677276,-0.5547149057133646,-0.9831374034629283,0.079841101863034,0.9567132657251634,0.25834261437192885,0.0341137250577933,0.09541612788681475,0.9797159549305687,0.4993729017654096,-0.060401673781031756,-0.4332046319583588,-0.32213194913365517,0.15938958973726297,0.09829406252362682,0.26869271239898634,0.49397524775156176,-0.547614031359045,0.5948288772176016,-0.70825170202065,0.24006467433343032,-0.3931800253313587,0.04464730870358695,0.5993492343140724]],[[-0.7645893516934348],[0.8715329264709997],[0.425855851615317],[-0.19304195351600623]]],"Output":[[0],[1],[1],[1]],"Rate":0.1,"Errors":[-0.15552254860602205,-0.020673317089377752,0.17118214577073299,0.16039592165875638,0.1454247337450122,0.1337616085686433,0.12473176907316243,0.11753911801386069,0.11164835977039121,0.10671047679164278,0.10249208174124658,0.09883185032308175,0.09561470053974698,0.0927562096053394,0.09019291851916422,0.08787610565084582,0.08576766740789861,0.08383731831546426,0.08206064119655936,0.08041769955551811],"Time":0.01,"Locale":"en"}
